%YAML:1.0
---
WeightsT: !!opencv-matrix
   rows: 105
   cols: 30
   dt: f
   data: [ -2.38129822e+02, -1.32341675e+03, 7.55812061e+03,
       4.30100635e+03, 7.11625293e+03, 5.25998486e+03, -4.98104523e+02,
       -1.09390271e+03, -5.81203174e+03, -5.01188428e+03,
       -5.09982666e+02, -4.10825244e+03, 3.70984421e+01, 8.69623535e+03,
       2.28751636e+03, 2.49723242e+03, 1.30343347e+03, -1.37020081e+03,
       -1.93609827e+03, -4.21165009e+02, -4.65798486e+03,
       -1.05449883e+04, -2.04167126e+03, -7.06998438e+03, 5.76686279e+03,
       6.54596533e+03, -9.93731873e+02, -2.47410107e+03, 5.63973096e+03,
       6.12188281e+03, -5.69261963e+03, 1.53549438e+03, -1.35202710e+03,
       -3.11414624e+03, -5.41927002e+03, -8.20917908e+02,
       -1.41902704e+01, 1.61002083e+01, 6.10070703e+03, 9.11848340e+03,
       -6.69157910e+03, -4.29552441e+03, 2.25571945e+02, -1.75884338e+03,
       4.19734924e+02, -4.36886292e+02, 6.48168799e+03, 7.08117920e+03,
       -3.90514502e+03, -2.39279126e+03, -1.56251826e+04,
       -1.01104277e+04, -3.37365837e+01, 3.36705981e+03, 1.17428357e+03,
       1.44675903e+03, 6.50433777e+02, -3.03635254e+02, -2.69477075e+03,
       -1.75694006e+03, -1.79572241e+03, -6.44578979e+02,
       -3.74594141e+03, -4.08604028e+03, -1.51394348e+03, 1.75382446e+03,
       5.46751758e+03, 4.88894092e+03, -1.94677026e+03, -4.75336572e+03,
       -3.14408594e+03, 1.80727600e+03, 4.50198975e+03, 7.61566696e+01,
       2.37847925e+03, 8.59493286e+02, 5.04812195e+02, -2.19089844e+03,
       2.37967627e+03, 3.96304346e+03, -3.97540063e+03, -8.35201416e+02,
       -3.43615991e+03, -2.35302148e+03, 5.39641309e+03, 4.61003076e+03,
       5.46268799e+03, 4.79749072e+03, -1.51752808e+02, -5.29309570e+03,
       -3.36663544e+02, 2.68783862e+03, -4.29032745e+02, -2.94290771e+03,
       2.00588586e+03, 1.77629114e+03, 3.73113861e+02, 3.65502258e+02,
       2.10525146e+03, 1.24759875e+03, -2.17958740e+03, -5.57944873e+03,
       -2.12323486e+03, 4.05405518e+02, -2.55503003e+03, -2.99906689e+03,
       2.74655908e+03, 2.23417871e+03, -5.31555322e+03, -6.25679199e+03,
       4.50145703e+03, 6.30595996e+03, -1.97684814e+03, -1.70931775e+03,
       2.87667529e+03, 4.84365820e+03, 7.28109497e+02, 2.73765198e+02,
       -1.96706885e+03, -3.34269604e+03, -4.43079688e+03,
       -6.19594287e+03, -1.46966650e+03, 1.39304688e+02, -2.57977051e+03,
       -3.35702148e+03, 3.05074219e+02, 2.10707959e+03, 1.51874915e+03,
       1.64026038e+03, -4.89499463e+03, 5.13544556e+02, 2.59844971e+03,
       2.52883472e+03, -4.98306305e+02, -1.00458136e+03, 5.45715271e+02,
       1.91419507e+03, -2.25713208e+03, -1.62046399e+03, 1.90326868e+03,
       2.23919312e+03, -3.23843921e+03, 1.10484814e+03, 4.18119727e+03,
       1.55234070e+03, -2.42419824e+03, -3.90667944e+03, 3.82954077e+03,
       1.68960742e+03, 2.91196021e+03, 5.63240771e+03, 5.41441504e+03,
       9.76640808e+02, -2.96615161e+03, -7.59287949e+01, 1.30339038e+03,
       -1.44312183e+03, 1.89274097e+03, 4.20994531e+03, 3.63973242e+03,
       1.14017017e+03, -9.38984131e+02, -1.07555115e+03, 2.59660083e+03,
       -1.19452771e+03, 3.43651294e+03, -4.80678223e+03, 4.60252625e+02,
       -6.78547180e+02, 1.97734473e+03, 9.40134705e+02, 1.19040259e+03,
       -1.20282849e+03, 4.96529492e+03, 5.69313431e+00, 2.26065527e+03,
       -7.66382568e+02, 3.97718628e+03, 6.78901489e+02, -4.83979675e+02,
       -2.22287012e+03, -1.79520776e+03, -9.04047913e+02, 2.46159424e+03,
       -2.44325409e+02, -3.17538647e+03, -5.17526270e+03, 1.09989124e+03,
       4.90753906e+02, -2.27327213e+01, 2.72725732e+03, -3.49735687e+02,
       3.31879852e+02, -1.60798291e+03, -2.81453467e+03, -5.19953979e+02,
       -7.39423462e+02, 8.16842163e+02, -1.02841235e+03, 6.66200928e+02,
       -2.86774994e+02, 9.40257812e+02, 7.88600525e+02, 4.35068994e+03,
       2.81036816e+03, 4.41012695e+02, 8.04526215e+01, -2.68271436e+03,
       -6.55837842e+03, -4.95912354e+02, 1.91896301e+03, 9.79047913e+02,
       -3.22203198e+03, -1.56169080e+03, 3.03421851e+03, -2.18267554e+03,
       -2.63321265e+03, -2.28220630e+03, -2.70096411e+03, 2.82979639e+03,
       2.28939185e+03, -2.77331055e+03, -2.38183252e+03, 7.99879700e+02,
       -3.09669525e+02, 3.48142285e+03, 5.57818164e+03, 1.72479541e+03,
       1.40556592e+03, -5.52085938e+02, 2.37182373e+03, 6.30229065e+02,
       -2.61105664e+03, 2.39778702e+02, 7.75405640e+02, -1.27448291e+03,
       -2.04585645e+03, -5.74953880e+01, 2.15425635e+03, -5.25445923e+02,
       -1.72641211e+03, -3.09433563e+02, 1.12362598e+03, -1.43198010e+03,
       -2.43580957e+03, -2.11283447e+03, -2.64553809e+03, 2.59087128e+02,
       5.08685791e+02, -4.87341095e+02, -3.16310028e+02, 2.09172070e+03,
       7.94234863e+02, -3.55840015e+03, -3.07856250e+03, 1.83907922e+03,
       1.78487842e+03, -3.61545837e+02, 4.55770569e+02, 9.61740112e+02,
       -1.31810620e+03, -3.43725903e+03, -2.15963818e+03, 8.22191772e+01,
       1.11841339e+02, 5.82068237e+02, 2.76745703e+03, -9.52084656e+02,
       9.61088135e+02, -4.99055664e+02, 2.36356470e+03, 3.04862817e+03,
       3.79512354e+03, -3.23678076e+03, 4.11264679e+02, 5.75894348e+02,
       -1.35673538e+02, -2.40098096e+03, -6.45974548e+02,
       -8.85228577e+02, -7.98443542e+02, 9.74552612e+02, -1.14552332e+03,
       6.39353821e+02, 6.04628113e+02, -1.66354446e+01, -1.20698196e+02,
       -4.17955742e+01, 3.06048981e+02, -1.73070984e+03, 6.08771912e+02,
       1.38528271e+03, -5.33006897e+02, 4.61032501e+02, 2.05057275e+03,
       -6.65024292e+02, -9.57489136e+02, -1.04800586e+03,
       -1.26059058e+03, -1.27961133e+03, 4.38998718e+01, -1.00411462e+03,
       4.86147491e+02, 8.24480408e+02, 1.62698035e+03, -7.68685364e+02,
       -2.50252655e+02, -1.04161026e+02, -8.56465515e+02,
       -2.29145093e+03, -2.91237842e+03, 5.19213074e+02, 2.05176416e+03,
       -1.63608240e+03, -9.20687561e+02, 3.09902077e+01, 1.25105688e+03,
       -4.95388428e+02, 1.99523340e+03, 2.34770340e+02, -3.03148407e+02,
       1.31288477e+03, 7.28969910e+02, -2.51417923e+02, -1.09029492e+03,
       3.24680023e+02, 1.16585645e+03, -3.07543427e+02, -4.37724640e+02,
       9.52384399e+02, 7.10050903e+02, -1.11830005e+03, -2.49625903e+03,
       -4.49124832e+01, -1.33731445e+03, -4.19746063e+02, 3.36192230e+02,
       1.17092383e+03, 1.46927222e+03, 6.20630554e+02, -1.01028326e+03,
       -1.41656235e+02, -3.94402222e+02, 5.55698425e+02, 1.04927600e+03,
       -1.52343848e+03, -7.76514160e+02, 2.34349243e+03, 3.90326392e+03,
       -8.77986298e+01, -4.53603638e+02, 6.45596191e+02, -1.24356274e+03,
       4.86565308e+02, 1.78556091e+03, -2.49916211e+03, -2.12492432e+03,
       -2.88447510e+02, -1.89434998e+02, -2.15264209e+03,
       -5.68413269e+02, 4.06008667e+02, -4.11199677e+02, -9.12662292e+02,
       7.36314697e+02, -1.02741235e+03, -1.47909912e+03, -1.73178589e+02,
       -4.08890381e+02, 5.79192932e+02, -1.03867334e+03, -8.59971924e+02,
       -2.34699438e+03, 1.36161926e+03, 1.61603699e+03, 6.59130371e+02,
       -2.76826807e+03, -2.19903534e+02, 9.36252808e+02, 1.80832153e+02,
       7.49873169e+02, -6.09412384e+00, 3.58047974e+02, 1.09849878e+03,
       1.09080786e+03, 6.40341125e+02, 4.37534149e+02, -1.29293274e+02,
       1.79256555e+03, 1.94783157e+02, 1.53294678e+02, -1.35014221e+03,
       -2.32083496e+03, -3.77999939e+02, -2.41327515e+03, 8.87635803e+02,
       4.70433105e+02, -7.11919128e+02, -3.40980133e+02, 1.03383203e+03,
       -7.16315796e+02, -5.38568787e+02, -2.96777283e+02,
       -3.63868896e+02, -4.52779022e+02, 1.91690723e+03, 4.57281677e+02,
       -3.75079529e+02, -5.75717896e+02, -3.37552551e+02, 8.19509705e+02,
       5.23635315e+02, -5.16346680e+02, 7.28973267e+02, 2.03561554e+02,
       8.72477112e+02, 2.38304688e+03, 3.43621887e+02, -4.32739990e+02,
       8.48179199e+02, -2.73893463e+02, -3.87893982e+02, -5.07379852e+02,
       9.38041931e+02, 2.18028296e+03, 1.23342566e+03, 2.58890930e+02,
       9.44515808e+02, 1.66753857e+03, 1.24722546e+03, -3.03440247e+02,
       -1.73382523e+02, -1.03904382e+03, 9.47978699e+02, 9.14678040e+02,
       2.30551611e+03, 8.20298035e+02, -1.12246254e+02, -6.61059448e+02,
       1.11866968e+03, -1.46773999e+03, -1.08011194e+03, -9.61533630e+02,
       4.11923981e+02, -7.40057312e+02, -2.43081055e+02, -2.75077026e+02,
       7.67508484e+02, -3.89050262e+02, -1.76827490e+03, 5.09616776e+01,
       4.65271942e+02, 1.13607556e+03, -1.17740393e+03, -9.11809311e+01,
       -7.43339355e+02, -4.95190796e+02, -1.36132874e+02, 4.18033783e+02,
       5.94307800e+02, -2.19650238e+02, -7.50165558e+01, 1.23101331e+03,
       -5.29109459e+01, 1.23751208e+03, 8.55458130e+02, 8.04225403e+02,
       -1.25308327e+02, 1.16134741e+03, -1.09262756e+03, 1.76923462e+03,
       -6.06055786e+02, -1.38830444e+03, -1.10755078e+03,
       -8.24493469e+02, -2.58403778e+02, -6.17155945e+02, 3.42208900e+01,
       -1.71583923e+03, 1.31295374e+03, 1.29540735e+03, 3.06320459e+03,
       1.24395850e+03, 6.68813232e+02, -3.17883032e+03, 1.34667578e+03,
       -2.63523834e+02, -9.91282043e+02, -8.73358765e+02, 1.92853601e+03,
       -3.25160736e+02, -1.81637927e+03, -1.29824634e+03, 1.81724646e+03,
       2.71992950e+02, 1.46391174e+03, 1.28332275e+03, -4.85200134e+02,
       -3.20911987e+02, 1.76317981e+03, -1.45750012e+03, 2.62291046e+02,
       -3.03441193e+02, 1.63202905e+03, -3.41140808e+02, 1.64493726e+03,
       -4.55972290e+02, -5.71391235e+02, 2.86114616e+01, 7.00307861e+02,
       -1.99390976e+02, 1.83353287e+02, -3.00984222e+02, 1.75804626e+03,
       -1.73051770e+03, 1.24916626e+03, 3.06114502e+02, 6.20973755e+02,
       7.91949219e+02, -3.22328857e+02, -3.74606689e+02, 5.23055969e+02,
       -2.82519531e+03, -7.75456482e+02, -7.28533691e+02, 2.61753833e+03,
       6.47550354e+02, 4.30644440e+02, 7.90850708e+02, -1.00693317e+03,
       1.32102783e+03, 1.14111168e+02, -1.44646378e+01, 1.00551794e+03,
       6.65785645e+02, 5.87860046e+02, 5.79976562e+02, 8.05115417e+02,
       2.78788849e+02, -1.15865979e+03, 5.28392090e+02, -1.28663956e+02,
       8.70676208e+02, -2.75151001e+02, 1.15571411e+03, 9.84609497e+02,
       1.26264122e+02, -9.12918854e+00, 1.12939343e+03, -1.82338623e+03,
       3.49303589e+02, 2.02340866e+02, 7.67377869e+02, 6.86261536e+02,
       4.20213440e+02, 2.95345703e+02, 1.06731140e+02, 2.56193756e+02,
       9.98836914e+02, 7.76035156e+02, 5.47751953e+02, -1.08249255e+03,
       -5.05490875e+02, -9.38693054e+02, -5.03725128e+01, 1.23285864e+03,
       -5.22990906e+02, 2.24041168e+02, -1.04223242e+03, 3.63398132e+02,
       3.96017059e+02, -8.28445862e+02, -7.57499756e+02, 3.03751007e+02,
       -6.60500732e+02, -7.71811279e+02, 1.69665680e+02, 8.60047424e+02,
       1.44779068e+02, -2.67441986e+02, 3.23271210e+02, 6.00142273e+02,
       4.26088379e+02, -3.69443024e+02, -3.79559296e+02, -1.01956281e+03,
       1.91850845e+02, 6.71776550e+02, 5.31926270e+02, -6.35445557e+02,
       -3.25709167e+02, -2.30221497e+02, 2.50709000e+02, -8.78310730e+02,
       1.23633606e+02, 1.50864029e+01, -1.57926041e+02, 1.21311853e+03,
       4.10845276e+02, 9.34971375e+02, 7.97346741e+02, 2.62525970e+02,
       3.38689148e+02, 9.27087784e+00, -1.31035919e+02, 1.13579170e+02,
       5.48249878e+02, 2.15362564e+02, -1.00722095e+03, 7.01077637e+02,
       1.99254059e+02, -6.34779663e+02, 2.41759766e+02, -4.35695862e+02,
       -2.11730762e+03, 4.26873230e+02, 1.47666260e+02, 9.53038269e+02,
       7.29253387e+01, 1.07201514e+03, -1.04762122e+03, -5.27824524e+02,
       1.05402368e+03, -5.32206543e+02, 4.57396210e+02, -3.40009308e+02,
       -1.61814587e+03, -6.36807495e+02, -6.10014038e+02,
       -5.79977661e+02, 1.25904800e+02, -9.98047607e+02, -1.02382910e+03,
       7.62600861e+01, -1.66879822e+03, 2.01937744e+02, -3.88257812e+02,
       -6.29792419e+02, 8.37598572e+01, -1.67746082e+03, 2.89185303e+02,
       3.03198547e+02, 1.63347461e+03, -2.22502441e+02, -3.11902084e+01,
       6.38907715e+02, -4.23511871e+02, -5.70249390e+02, -3.44413635e+02,
       -1.02169641e+03, 6.21051086e+02, -5.42485596e+02, 4.95152588e+02,
       -1.29885376e+03, 1.15310974e+02, -4.97106506e+02, -2.89787109e+02,
       -1.51199158e+03, 6.39719482e+02, -4.16864380e+02, 1.03210144e+03,
       2.55730495e+01, -7.19966064e+02, -5.01745422e+02, 1.20814368e+03,
       -1.02189873e+02, 4.31382050e+02, 5.06710022e+02, 2.74806843e+01,
       9.27815613e+02, 3.97554932e+02, 2.10609451e+02, 9.80013367e+02,
       -1.42704758e+02, 2.82118774e+02, 1.39306519e+02, 1.63315170e+02,
       -2.53800049e+02, 1.20852402e+02, 6.07133362e+02, -2.10109726e+02,
       6.29485596e+02, -5.96007812e+02, -6.89813965e+02, 4.25143158e+02,
       7.74772583e+02, -4.60896759e+02, -2.83943787e+02, 6.47733536e+01,
       -3.56115784e+02, 1.32658777e+01, -1.05574707e+02, -9.23467163e+02,
       1.68977509e+02, -6.26157349e+02, -8.24901306e+02, 3.23376892e+02,
       -6.13618225e+02, 2.36568527e+02, 6.30857910e+02, -7.68248962e+02,
       8.13728333e+02, 1.50845410e+03, -2.52166687e+02, 1.35687576e+02,
       3.40869049e+02, -4.75003967e+01, -3.03245056e+02, 7.59805450e+01,
       -3.28385681e+02, 8.29115967e+02, -2.95871857e+02, -3.61028320e+02,
       -7.89615295e+02, 8.52762146e+01, -9.64087708e+02, 3.09696007e+01,
       -6.01030701e+02, -3.04979401e+02, -1.01825671e+03,
       -2.67328552e+02, 1.12741431e+03, 1.47213416e+03, -7.57457733e-01,
       -2.35452881e+02, 7.68971069e+02, 7.95430908e+01, -4.66106537e+02,
       6.40829712e+02, 6.99398117e+01, 2.15537109e+02, -1.38143164e+03,
       -1.58746796e+01, 1.67323242e+02, -2.38762283e+02, 1.74472107e+02,
       7.49880371e+02, -3.51174896e+02, 5.85017944e+02, 6.12760864e+02,
       2.00349762e+02, -1.04909172e+01, -8.40969421e+02, -5.31058960e+02,
       3.46458008e+02, 2.82678955e+02, 5.28431641e+02, -1.52333142e+03,
       2.29573776e+02, 2.38505554e+02, 6.69308090e+01, -1.17335376e+03,
       -1.91312454e+02, -3.98463318e+02, -1.20903961e+02,
       -5.36941681e+01, 7.44619217e+01, 6.67646301e+02, 9.06338928e+02,
       -8.18022217e+02, -2.97870850e+02, 5.62625977e+02, 1.79726038e+03,
       -7.67107422e+02, 1.89604462e+02, -2.19863693e+02, -1.54521637e+01,
       -9.08475098e+02, -2.88305389e+02, -1.12686182e+03,
       -4.79404236e+02, -5.65115479e+02, -1.32527869e+03,
       -5.79523193e+02, 7.39129181e+01, -4.04982330e+02, -8.02546387e+02,
       -7.55036987e+02, -3.59697495e+01, -9.72274902e+02, 5.02964691e+02,
       2.18192215e+02, -6.51906860e+02, 3.72216034e+01, -4.98236877e+02,
       -5.83129944e+02, 5.51142502e+01, -9.13052124e+02, -1.47345862e+03,
       -1.91062485e+02, 2.37107117e+02, 2.30525818e+02, -1.83193787e+02,
       3.14631042e+02, 2.05032242e+02, -4.91825287e+02, -4.66684662e+02,
       -2.19531860e+02, -1.41301483e+02, -7.81629822e+02, 4.54297638e+02,
       9.04376221e+01, 8.80156250e+01, 3.64803101e+02, -1.25857803e+02,
       2.37798874e+02, -1.91575836e+02, -4.27282288e+02, 1.70876678e+02,
       5.18731873e+02, -3.18182129e+02, 7.52541626e+02, 6.82634033e+02,
       4.00459961e+02, -1.54334518e+02, -9.87305542e+02, -4.24197937e+02,
       3.51088196e+02, 1.77332535e+02, -4.04013245e+02, 1.62743271e+02,
       1.56615372e+02, 2.16607834e+02, -1.58661499e+02, 2.20700195e+02,
       -1.24899438e+03, -5.58000305e+02, -7.03016739e+01,
       -2.26974503e+02, -4.82130005e+02, 6.01476624e+02, -9.01660706e+02,
       2.93935913e+02, -1.06445105e+03, 1.19470932e+02, -1.13449316e+03,
       -7.14922256e+01, -3.55854736e+02, 5.94796326e+02, 1.85494328e+01,
       7.10703552e+02, -1.00237927e+03, 3.42730774e+02, 5.01940491e+02,
       -1.03208911e+03, 5.82180672e+01, 2.52906403e+02, -3.42105865e+02,
       -3.23963814e+01, 9.14696167e+02, -2.40573334e+02, 4.89456909e+02,
       -6.62369843e+01, 5.01488434e+02, 3.53382294e+02, -1.51064209e+02,
       -1.21556969e+02, 4.09868988e+02, 6.63432739e+02, -7.21264343e+02,
       -2.33713577e+02, 5.85118164e+02, -9.37574341e+02, 1.39321671e+02,
       2.16477585e+02, 7.89843323e+02, 4.22690369e+02, -5.05988037e+02,
       -2.99421753e+02, 4.20634033e+02, 3.08874664e+02, -1.07804230e+02,
       -7.63654114e+02, 2.63609283e+02, 2.08253174e+02, -8.79288086e+02,
       -5.66952393e+02, 8.53554565e+02, 4.25079193e+02, -1.12607315e+02,
       6.80175110e+02, 5.81334412e+02, -6.77141907e+02, -5.70600052e+01,
       -2.57529877e+02, -9.33073181e+02, 7.92651978e+02, 1.68015945e+02,
       -6.15296364e+01, 5.53997131e+02, -8.77633606e+02, 4.25634369e+02,
       -2.16160187e+02, 1.02141852e+03, 1.74827606e+02, 3.73578949e+01,
       8.10132294e+01, 7.58403137e+02, 1.00175244e+03, -3.04798126e+00,
       -6.39187805e+02, -3.75014587e+02, -5.39295105e+02, 9.52202301e+01,
       3.99504150e+02, 4.64720520e+02, 2.93534332e+02, 1.50725357e+02,
       6.92315979e+02, 8.89495728e+02, -2.17994659e+02, -2.08047638e+02,
       -1.09016882e+03, 1.81931229e+02, -1.04708603e+02, 1.10205292e+02,
       -6.35251038e+02, -3.92907837e+02, -2.43121323e+02, 1.09803421e+02,
       -1.30546478e+02, 7.37325562e+02, -3.50845184e+01, -8.25711853e+02,
       5.92761765e+01, -3.84316437e+02, 1.32608459e+02, 1.80201645e+02,
       -3.28330170e+02, -1.44022018e+02, 4.83783035e+01, 5.08211823e+01,
       -1.32302414e+02, -1.16312817e+03, 6.83537903e+02, 3.24214752e+02,
       1.41947220e+02, 7.60919556e+02, -1.35882294e+02, 3.34525146e+02,
       -1.47379004e+03, 2.53295135e+00, -3.73924438e+02, -4.68297119e+02,
       6.80211334e+01, 2.94095093e+02, -4.39754883e+02, 1.99095215e+02,
       -1.31000946e+02, -5.96301941e+02, 6.31025024e+02, -1.62001526e+02,
       -4.84534546e+02, -2.15405685e+02, 3.12558228e+02, -7.60896454e+01,
       2.60946869e+02, -7.02236267e+02, 6.60560486e+02, -3.46951904e+02,
       -2.40502502e+02, -1.15739771e+03, -1.74668839e+02,
       -2.08458176e+02, -1.03029529e+03, -3.88909485e+02,
       -4.72966156e+01, -2.59601135e+02, -4.60916595e+02,
       -3.51500519e+02, 1.89593689e+02, 5.87207031e+02, 5.48678589e+02,
       5.23189758e+02, -5.51992126e+02, -1.04570532e+03, 8.48587769e+02,
       -1.83179169e+02, -2.80277443e+01, 5.87974487e+02, -5.24067444e+02,
       -5.83962784e+01, 2.05979813e+02, -6.56874023e+02, -1.29707275e+02,
       3.47436371e+01, -1.24435783e+02, -6.00530762e+02, -4.74026680e+00,
       -7.70579224e+02, -2.71182220e+02, -2.30618378e+02, 2.80323517e+02,
       4.83388611e+02, -4.33531830e+02, -3.28537567e+02, -1.12522324e+02,
       -3.58194809e+01, 5.02254059e+02, -1.44928040e+03, 6.88248474e+02,
       8.81348755e+02, -4.16222107e+02, -1.03772131e+03, -5.55510864e+02,
       -6.37648987e+02, 5.61045471e+02, -3.27132507e+02, -2.55234680e+01,
       -7.56876770e+02, 3.33566071e+02, 1.21918060e+02, 1.23425613e+02,
       5.44091675e+02, 3.36290314e+02, 4.06835419e+02, -1.79004639e+02,
       4.19217773e+02, 8.72359009e+01, -3.45578308e+02, 3.36425232e+02,
       3.27723007e+01, -2.57786438e+02, -3.35119934e+02, 1.33092133e+02,
       -1.40649147e+01, 2.07949677e+02, -5.38423523e+02, -9.83704987e+01,
       -1.31714209e+03, 1.45700940e+03, -4.39869019e+02, 7.11191650e+02,
       7.83722382e+01, 4.80420624e+02, -1.77868252e+01, -3.00777100e+02,
       -2.45914520e+02, 2.54681137e+02, 2.62833313e+02, -2.75593597e+02,
       -8.60358459e+02, 2.48219254e+02, -4.27420410e+02, 4.51096191e+02,
       -5.40736389e+02, 2.11510712e+02, -2.81960449e+02, -2.83374084e+02,
       2.03879379e+02, 1.88240234e+02, -3.83562958e+02, 2.41757492e+02,
       -2.02420135e+02, 2.95640045e+02, -6.28271851e+02, 8.16422852e+02,
       -9.66736755e+01, 3.77838989e+02, 9.76746292e+01, 6.37302246e+02,
       4.46832977e+02, -3.02929047e+02, -3.18949402e+02, -9.84605103e+02,
       7.92280045e+01, 8.92773895e+01, 7.12372742e+02, 2.30354950e+02,
       -3.30134827e+02, 8.69130920e+02, -5.66582092e+02, -4.26605286e+02,
       -8.00071106e+01, 5.60041870e+02, -6.40129028e+02, -4.75099487e+01,
       -1.31744843e+02, 4.81194839e+01, 1.88138092e+02, 1.07682602e+02,
       3.62026306e+02, 4.93358841e+01, -2.72977661e+02, -7.96661377e-02,
       4.53942299e+01, 1.48275635e+02, 6.04113953e+02, 1.13678360e+02,
       2.81989532e+02, -1.03849335e+02, 4.82772034e+02, 5.48912170e+02,
       2.48369614e+02, 2.70115471e+01, 1.30684525e+02, -2.13251373e+02,
       -5.55318848e+02, -1.77885574e+02, 7.80635376e+02, 2.57967773e+02,
       6.26418419e+01, -8.97825806e+02, 1.06839563e+03, -3.15604492e+02,
       6.07669739e+02, 5.24885437e+02, 1.12417236e+03, -1.91251251e+02,
       -9.67721802e+02, -3.72334290e+02, -6.86141418e+02,
       -5.38946533e+02, -6.89673645e+02, 4.84422516e+02, -7.65875549e+02,
       -1.44246094e+02, -2.89717346e+02, 1.70241661e+01, -5.49271912e+02,
       9.86117096e+01, -6.15936646e+02, 5.00821198e+02, 1.14134290e+03,
       1.75563123e+03, 7.49397583e+02, 5.20652924e+01, -2.11852951e+02,
       4.25710510e+02, -7.30908875e+02, -8.89373718e+02, -7.75913086e+01,
       2.27093567e+02, 1.32585535e+03, 1.68066315e+02, -8.45300171e+02,
       -1.69517685e+02, -9.44210205e+02, 1.93010292e+01, -9.08719299e+02,
       1.29560547e+02, 3.54525818e+02, -3.03121521e+02, 3.09189819e+02,
       -3.62176697e+02, 7.27063232e+02, 3.51692474e+02, 3.01383820e+02,
       3.17924347e+02, -5.87825134e+02, 6.89125977e+02, 3.83044495e+02,
       -8.82674133e+02, 2.30618591e+02, -1.63400146e+02, -5.51657593e+02,
       -1.22813721e+03, -8.54705811e-01, -1.16632011e+02, 4.69516113e+02,
       -1.56251053e+02, 5.69261093e+01, -1.25331750e+03, -3.72574005e+02,
       -1.14716339e+02, -4.53113922e+02, -2.25309937e+02,
       -6.00580811e+02, 2.53878433e+02, -1.77763016e+02, 2.91084473e+02,
       6.11597839e+02, 2.52158936e+02, 2.39125305e+02, 2.56975555e+02,
       -1.42766693e+02, 2.11760498e+02, 2.66320923e+02, 1.59210464e+02,
       6.02399597e+02, 4.67706940e+02, 2.58819763e+02, 3.45714752e+02,
       5.37978333e+02, 1.85993256e+02, 7.43525513e+02, -8.26943176e+02,
       4.62236389e+02, 1.55763454e+01, 4.93600311e+02, 5.86008545e+02,
       1.39591687e+03, -2.05367603e+03, 4.87338562e+02, -3.46625427e+02,
       3.47725128e+02, -1.79292862e+02, -1.80093018e+02, -6.01460075e+01,
       -4.09322113e+02, 3.44935638e+02, -2.11638123e+02, 8.91362000e+01,
       -1.10517471e+02, -3.30606384e+02, -5.34995972e+02,
       -8.79483986e+00, -7.40510437e+02, -4.80781555e+02, 5.08274353e+02,
       7.94921799e+01, -4.21289429e+02, 4.29500732e+02, -2.28428993e+01,
       1.35404022e+02, 1.10369965e+02, -2.10121689e+02, -2.70186432e+02,
       1.38149414e+02, 6.55681091e+02, -2.21958878e+02, 3.56293182e+02,
       -1.12785225e+02, 4.42995728e+02, 7.76019440e+01, 4.19827576e+02,
       -3.96896576e+02, 7.49301453e+02, 2.85297729e+02, 7.82733765e+01,
       -2.08985504e+02, -5.54565048e+01, 1.03737097e+03, 6.18286987e+02,
       1.50094437e+02, -5.65438385e+01, 1.18036041e+02, -1.30151855e+02,
       -8.98018005e+02, -5.95175964e+02, -2.49990082e+02,
       -1.06055222e+02, -7.74262939e+02, 1.49002533e+02, -6.44161606e+01,
       9.26343018e+02, 3.72044586e+02, 4.85748505e+02, 4.64081039e+01,
       6.47969666e+01, -3.66140656e+02, -6.15325073e+02, 3.56858124e+02,
       1.21801990e+03, 2.52319977e+02, -9.87416916e+01, -6.99759521e+02,
       4.57986145e+02, 4.03509140e-01, 3.55470398e+02, -3.25798462e+02,
       -1.09873711e+02, 2.01327606e+02, 7.74064453e+02, -3.16349518e+02,
       8.46480255e+01, 3.39311218e+02, 8.10221863e+00, -5.54897217e+02,
       2.95311005e+02, 2.86905945e+02, 1.04881580e+03, -2.27197998e+02,
       -2.43904076e+01, -3.43712524e+02, 1.97981262e+02, 2.97815857e+02,
       6.95483643e+02, -6.81620300e+02, -7.00887985e+01, -1.02073837e+02,
       6.29250671e+02, -1.13965283e+03, -5.50950012e+02, 3.17555725e+02,
       -1.03994049e+02, 4.70274597e+02, -2.07104553e+02, 3.41267822e+02,
       7.27377319e+02, 6.74375183e+02, 7.48718201e+02, 7.96651077e+00,
       -5.14154236e+02, 5.82423744e+01, 1.16824364e+02, -1.80722580e+02,
       -1.73037018e+02, -1.57398315e+02, 4.27613281e+02, -1.43561304e+03,
       -3.09535828e+02, -4.70363556e+02, -2.62211273e+02,
       -8.98399811e+01, -9.79546631e+02, 1.15425623e+03, -1.64405136e+02,
       1.40108719e+02, -2.64067322e+02, -7.63901596e+01, 1.95311783e+02,
       -1.21215613e+03, -6.90781311e+02, 1.68889557e+02, 3.73929840e+02,
       -5.26189392e+02, -7.02495178e+02, 4.00866623e+01, -4.43365234e+02,
       -2.75772797e+02, -6.65920776e+02, 4.60062683e+02, -8.51408310e+01,
       -2.83984253e+02, 4.50744438e+01, 7.27302551e+00, 5.48796082e+02,
       1.64296387e+02, -4.31676025e+02, -3.74302429e+02, -3.32215347e+01,
       -7.43055481e+02, -7.21746460e+02, 3.74777641e+01, -1.54419815e+02,
       -5.04215912e+02, -3.12656677e+02, 9.89459076e+01, -6.28750061e+02,
       -1.00404335e+02, -4.35958252e+02, -3.08806366e+02,
       -1.24677780e+02, -2.66589539e+02, -1.71173477e+02,
       -3.45234436e+02, -2.02465683e+02, -2.53409943e+02, 5.66668396e+01,
       -4.25701141e+01, 2.54615540e+02, 2.51268036e+02, -7.00565918e+02,
       7.06364502e+02, -5.06696869e+02, -2.16587639e+01, 5.94761200e+01,
       -1.04349899e+02, 2.98461517e+02, -7.52311630e+01, -1.91615311e+02,
       -1.25458887e+03, 3.51504883e+02, 3.02208527e+02, 6.02835815e+02,
       5.71319031e+02, 6.10396881e+01, -3.35712555e+02, -3.30751709e+02,
       6.36323669e+02, 6.20140381e+01, 2.99987701e+02, 8.91668884e+02,
       3.40509224e+01, 1.90089203e+02, -4.05437927e+02, -4.31523956e+02,
       -2.56122780e+01, 2.15053452e+02, -7.57247009e+02, 1.40359726e+02,
       4.84794388e+01, 1.95027344e+02, 4.53146698e+02, 1.77133789e+02,
       -3.33537750e+01, -1.53217590e+02, 1.72853394e+01, 1.02640350e+02,
       1.01883087e+02, -2.92850037e+02, -4.25353699e+02, 1.80595581e+02,
       5.23189636e+02, 6.93435303e+02, 8.86642456e+00, 1.95656799e+02,
       1.20368774e+02, 1.29621124e+02, -9.24840942e+02, -3.78215149e+02,
       1.78375610e+02, -1.25800766e+02, 1.97116608e+02, -8.12752747e+02,
       3.25875397e+02, 5.69074158e+02, -4.90317230e+02, -2.38848969e+02,
       -5.60107788e+02, -5.15697449e+02, -4.56531006e+02, 3.50225258e+00,
       -1.58045101e+01, 2.20525711e+02, 6.07000275e+01, -3.97086060e+02,
       1.64975525e+02, -2.77948975e+02, -3.68710510e+02, -3.38128052e+02,
       9.76828156e+01, -2.59408112e+02, -1.10144646e+02, -4.46963882e+01,
       -5.42699402e+02, -3.99931488e+02, 1.11807564e+02, 2.44436081e+02,
       -5.99888550e+02, 1.80670822e+02, 2.10410034e+02, -1.68329971e+02,
       -2.74797913e+02, 2.61456726e+02, 8.12734070e+01, -6.44802246e+02,
       -3.30832458e+02, -6.76996033e+02, -1.43159927e+02,
       -2.63998932e+02, -6.00911377e+02, -3.75651550e+02, 2.37309250e+02,
       -9.72772461e+02, 1.05120033e+02, 5.71391182e+01, -2.36423531e+01,
       -5.46967468e+02, -1.96867714e+01, -2.01918213e+02,
       -3.48292053e+02, 1.06083725e+02, 5.19267151e+02, 3.96801117e+02,
       1.99834091e+02, -4.71235596e+02, -7.55231247e+01, 4.30750916e+02,
       3.53593231e+02, -1.33164169e+02, -2.02644699e+02, 8.58326599e+02,
       -1.53898773e+02, -2.33575687e+01, -4.02860870e+02, 3.94921875e+00,
       -2.84085236e+02, -2.73192566e+02, -2.09425064e+02, 3.40862183e+02,
       5.47257019e+02, 3.71444519e+02, -1.72684097e+02, -2.45822617e+02,
       4.75621613e+02, -3.67641083e+02, -3.32244019e+02, 3.23961700e+02,
       5.66710083e+02, 3.64975372e+02, 4.39291504e+02, 1.75144455e+02,
       5.77681541e+01, 2.16546997e+02, 7.94221115e+01, 2.11260262e+01,
       -7.25147476e+01, 2.00030670e+02, -3.74005432e+02, 6.60019379e+01,
       -1.21379797e+03, 9.25403809e+02, -2.55787430e+02, 1.28342712e+02,
       -2.04094421e+02, -3.50048096e+02, -4.02052460e+01, 3.05116302e+02,
       3.20405762e+02, -6.56609558e+02, -5.56604919e+02, 3.67679749e+01,
       -1.50089081e+02, 5.47775085e+02, 5.56163788e+00, -7.69247864e+02,
       3.73126373e+01, 4.11968201e+02, -1.41347260e+02, 5.42311890e+02,
       -1.90776978e+02, -1.01612747e+02, -6.82096939e+01,
       -3.42378601e+02, -5.67307434e+02, 1.55801300e+02, -3.06694366e+02,
       -2.59580688e+02, 3.48123283e+01, 2.14412521e+02, -1.06398109e+02,
       -3.93026703e+02, 1.76635254e+02, -3.70949402e+02, 4.14271851e+02,
       -1.34366104e+02, -4.87879562e+01, 1.92729149e+01, 9.70461655e+01,
       5.47512451e+02, -5.25995255e+01, 2.67131775e+02, -5.17282532e+02,
       2.18623947e+02, 1.35224533e+02, -2.96846649e+02, -4.90815697e+01,
       -4.40448975e+02, -1.16812477e+02, 3.02723145e+02, 3.25653419e+01,
       5.71535263e+01, 8.39453049e+01, 1.85852478e+02, -1.15043755e+02,
       3.15832672e+02, 1.36131805e+02, -1.23727196e+02, 5.36156006e+02,
       3.37429138e+02, -5.38384018e+01, -7.18287277e+01, -1.49434998e+02,
       -1.86224213e+02, -1.39208267e+02, -3.60628586e+01,
       -2.42901901e+02, 3.53846832e+02, 1.23984650e+02, 9.22921600e+01,
       -5.38076248e+01, 1.07537041e+01, -1.60730179e+02, 1.20145599e+02,
       -7.86333694e+01, 1.95144592e+02, -3.41804443e+02, -4.65672760e+02,
       -2.13175964e+02, -1.44373611e+02, -8.38927917e+02, 2.80798889e+02,
       -1.88488205e+02, 2.53279068e+02, -1.20503625e+03, -3.81974678e+01,
       3.51036987e+02, 3.98939056e+02, -5.56574402e+01, -2.65365631e+02,
       4.40157509e+01, -3.38715027e+02, -1.29812107e+01, 5.44176392e+02,
       -3.99340057e+01, 2.36445312e+02, -4.49338570e+01, 1.31444138e+02,
       -1.11469975e+01, -9.17874985e+01, -1.59057022e+02, 6.84112244e+01,
       -2.82201874e+02, 3.16254639e+02, 2.23392670e+02, 1.24484909e+02,
       2.93253296e+02, -5.24181946e+02, 1.37522171e+02, 3.07553619e+02,
       -6.66536377e+02, -7.59069397e+02, -1.78744705e+02,
       -2.10989471e+02, -9.59603821e+02, -2.89425659e+02,
       -4.22244835e+01, 1.52658264e+02, -3.92735260e+02, -1.16043103e+03,
       3.82199478e+01, -3.35316345e+02, 1.72713852e+00, -2.13721710e+02,
       -1.44640381e+02, -7.77356186e+01, 1.24807487e+02, -5.83715820e+02,
       5.02229919e+01, 2.18898804e+02, -3.18045380e+02, 1.19484474e+02,
       -1.49399780e+02, 4.08468552e+01, -3.86223717e+01, -5.81394348e+02,
       -2.18404999e+02, 1.85317078e+02, 5.40008545e+02, 3.86947784e+01,
       -1.15333179e+03, 1.42093231e+02, -8.35535889e+01, -2.90036488e+01,
       1.57249109e+03, 1.96195251e+02, 1.15686111e+02, -1.23320160e+02,
       5.42563538e+02, 2.21382233e+02, -1.71498566e+02, -1.40035461e+02,
       2.82868561e+02, 8.76810608e+01, 1.90748184e+02, -4.28170776e+00,
       2.24005737e+02, -4.06179047e+01, 2.03995789e+02, -2.70101379e+02,
       5.22999268e+01, 9.94996033e+01, 2.93896423e+02, -3.02402832e+02,
       4.00515106e+02, -2.33952682e+02, 3.57913269e+02, -3.72141190e+01,
       1.72365479e+02, -3.75223541e+01, 3.23190643e+02, 6.36762634e+02,
       4.67595825e+02, 3.24071732e+01, 3.85080170e+02, 3.37805290e+01,
       4.20125427e+02, 3.73102905e+02, -3.22107269e+02, 2.11172272e+02,
       1.55129135e+02, 8.48638611e+02, -1.40402283e+02, -4.74790497e+02,
       2.48290344e+02, -3.09592651e+02, -1.96111633e+02, 1.83248642e+02,
       -3.03939056e+02, -6.47214890e+01, -8.36613770e+02, 4.90272293e+01,
       3.44571686e+02, 3.25521820e+02, 1.49045944e+00, -8.94717285e+02,
       -5.31667542e+02, -2.06387672e+01, 1.96532181e+02, -1.88150085e+02,
       6.17309326e+02, 7.01130432e+02, -2.40327255e+02, 3.21179443e+02,
       -5.39211548e+02, 1.09857574e+02, -2.32063446e+01, -2.62011505e+02,
       -1.96266708e+02, -3.83656586e+02, -8.15619019e+02, 1.04119031e+03,
       -2.51812744e+02, 2.93617981e+02, 3.14159393e+02, -1.04335350e+02,
       5.62486115e+01, -3.75686737e+02, 1.96195053e+02, -8.52716675e+01,
       4.77789062e+02, -3.69684143e+02, -8.84539490e+01, 1.73932312e+02,
       -1.09248528e+02, 2.41328918e+02, -1.00844322e+02, 6.11569595e+00,
       7.97750092e+00, -3.68605927e+02, -2.43666809e+02, -1.30701797e+02,
       5.49356323e+02, -3.02651367e+02, 4.29681946e+02, -7.06152527e+02,
       9.75064774e+01, -1.12682297e+02, -1.93486145e+02, 3.63543213e+02,
       3.37264481e+01, 1.22687122e+03, -4.94019241e+01, 2.75726929e+02,
       9.41054611e+01, 2.16593857e+01, -1.58096619e+02, 2.21357437e+02,
       3.78342438e+02, 3.65853394e+02, 8.94921875e+02, 4.49544144e+01,
       -5.58826782e+02, -2.04615128e+02, 3.60573883e+02, 3.92089996e+01,
       2.31457230e+02, 1.66422806e+02, -3.53765564e+02, -3.48555183e+01,
       -7.73636719e+02, 3.12136478e+01, -1.37170334e+02, 1.67095352e+02,
       -7.48518127e+02, 1.79214798e+02, 4.60833740e+00, 7.33339355e+02,
       7.07507324e+01, 1.67512344e+02, 5.67784546e+02, 4.58933960e+02,
       -2.79954834e+02, -6.29752258e+02, 1.69176346e+02, -3.21232544e+02,
       8.95663223e+01, -5.14308411e+02, 4.62912567e+02, -7.89904053e+02,
       -6.99851685e+02, 5.06487808e+01, 2.39218964e+02, -5.35081848e+02,
       2.88278748e+02, -3.88221405e+02, 4.43047066e+01, -6.38517944e+02,
       7.28481445e+02, 2.07133438e+02, -1.54814478e+03, 1.12581039e+02,
       3.56146179e+02, -4.04080505e+02, -2.12434631e+02, -3.89724609e+02,
       2.40766739e+02, 1.82043335e+02, -2.54245361e+02, -6.80610352e+01,
       -4.55841736e+02, -7.61015015e+02, 1.44858643e+02, 2.57257721e+02,
       -8.10454178e+01, 9.96390457e+01, -1.99067413e+02, -1.76103668e+01,
       1.84270020e+02, 4.01790680e+02, 2.73269684e+02, -1.71617004e+02,
       3.77142914e+02, -2.13977798e+02, -2.34491074e+02, 2.46117661e+02,
       4.85215683e+01, 6.20666847e+01, -1.02194038e+02, 4.84484673e+01,
       3.22782166e+02, 4.01478088e+02, 5.19094788e+02, 4.83713104e+02,
       -2.98232361e+02, 6.09041199e+02, 1.60358276e+02, -4.39583313e+02,
       -4.14342651e+02, -3.84363831e+02, 7.35002869e+02, -3.52235962e+02,
       8.81371613e+01, -1.88799210e+02, 4.07803535e+01, -1.59422348e+02,
       6.49610672e+01, 4.92892303e+02, -1.27550880e+02, -2.80823914e+02,
       -4.93474548e+02, 1.22036667e+02, 1.21579147e+02, -1.17087959e+02,
       1.42394012e+02, 2.89129669e+02, -1.54182648e+02, -4.34714417e+02,
       1.24737732e+02, 4.03173859e+02, 1.07157516e+02, -5.98106812e+02,
       -6.80841370e+01, 3.47308197e+02, -5.09242310e+02, 1.15202057e+02,
       1.55533562e+01, -1.14585930e+02, 1.88172043e+02, -9.11940369e+02,
       -9.84331207e+01, -3.50588623e+02, -1.03408264e+02, 1.90660675e+02,
       -1.57276215e+02, 3.58361145e+02, -4.24745178e+01, -1.78133499e+02,
       -3.54511169e+02, 4.87867737e+01, -2.32658173e+02, 2.91812668e+01,
       2.53423828e+02, 7.51017395e+02, -1.05077950e+02, -3.24865326e+02,
       -2.44891861e+02, -7.88067627e+01, -2.76053345e+02, 4.00329666e+01,
       -3.46294983e+02, -4.88163940e+02, -4.41473198e+01,
       -2.12204239e+02, -9.05013000e+02, -2.35013275e+02,
       -3.67529541e+02, 5.40053711e+01, -2.53298233e+02, 6.45709991e+01,
       -3.99634277e+02, -1.35586746e+02, -4.75602760e+01,
       -2.47159912e+02, -7.41016998e+01, -7.39826508e+01,
       -1.79688934e+02, -2.58410706e+02, 2.13094269e+02, -5.38866455e+02,
       -5.19154785e+02, 5.80388489e+02, -7.34698364e+02, -1.64663143e+01,
       1.35365646e+02, -1.40752853e+02, 5.36572571e+02, -2.36129974e+02,
       6.38668861e+01, -4.53699890e+02, 2.18257416e+02, -1.42468964e+02,
       1.93468811e+02, 2.21817139e+02, 9.14042114e+02, 4.09317207e+00,
       1.42204571e+01, 5.04717346e+02, 1.32750427e+02, -3.22247131e+02,
       6.64311829e+02, 1.11525459e+02, -2.84746307e+02, 5.52999817e+02,
       -1.78447800e+02, -1.05474231e+03, 2.08237488e+02, -1.33910355e+02,
       -1.95810242e+02, -4.26829010e+02, 6.16423828e+02, 3.33606842e+02,
       -3.94603729e+02, -4.79676788e+02, 8.92932892e+01, 1.27455002e+02,
       -2.03042313e+02, -7.49205872e+02, -1.55221741e+02, 2.11547562e+02,
       -3.01258270e+02, -1.38069878e+01, 5.06849327e+01, -5.79956909e+02,
       3.00941544e+01, -2.32677856e+02, 9.44571762e+01, -3.94165436e+02,
       4.82469513e+02, -2.02723755e+02, -7.05820435e+02, 1.43507278e+02,
       -1.12922073e+02, 3.67695221e+02, -5.38970825e+02, -1.35416580e+02,
       2.45126312e+02, -3.10605530e+02, 1.82035217e+02, -7.68771820e+01,
       5.38175232e+02, -2.94331940e+02, 3.10296478e+02, -2.39369766e+02,
       8.70006180e+00, -6.98789883e+00, -3.39757996e+02, 2.52427063e+02,
       2.42367020e+02, 3.64615707e+01, 1.10391321e+03, -2.60631676e+01,
       2.31157410e+02, 3.01638947e+01, -3.52064636e+02, -4.50475845e+01,
       1.04174988e+02, -2.71772736e+02, 4.95717804e+02, 1.16823074e+02,
       -1.60706818e+02, -2.53522263e+02, 3.70662842e+02, 9.52928848e+01,
       -2.23724518e+02, 2.08583817e+02, 3.87809021e+02, 5.23058395e+01,
       5.00062714e+01, 7.80908966e+01, -2.55741440e+02, 1.01500757e+03,
       -1.83016037e+02, -9.51555862e+01, 1.25998917e+02, 2.71111267e+02,
       9.58854218e+01, -1.38880630e+02, 9.57744370e+01, 1.07728111e+02,
       -3.90938843e+02, -3.65575134e+02, -5.80953430e+02,
       -3.37217529e+02, 3.90866608e+02, 2.67022743e+01, -1.28711960e+02,
       1.40921494e+02, 1.32562973e+02, 1.89268448e+02, -8.71179199e+02,
       2.07517197e+02, -1.40213196e+02, -2.72156311e+02, 2.45646683e+02,
       8.15394165e+02, -1.11395447e+02, -1.90766830e+02, -4.81099670e+02,
       -5.61959457e+01, 5.96733032e+02, -1.31457764e+02, -1.03100500e+03,
       -4.01767517e+02, 2.09160889e+02, -1.09983894e+02, -1.68977890e+01,
       -5.43715454e+02, -9.08524780e+01, -3.66099396e+02, 5.71666756e+01,
       -8.39208679e+02, -6.88285583e+02, 1.05744247e+02, -2.23726196e+02,
       -2.92173828e+02, 8.98996353e+00, -1.52283020e+02, -5.52678604e+01,
       -7.97564270e+02, 6.41178040e+02, -4.10358765e+02, 1.42696594e+02,
       -4.81603485e+02, -9.90658340e+01, 1.06148300e+02, -1.14012398e+02,
       3.39613152e+00, 1.81717941e+02, -1.01961700e+02, -2.51199890e+02,
       2.35923843e+02, -3.54951111e+02, -1.06185501e+02, 9.87694244e+01,
       3.81168762e+02, 8.60833130e+01, -2.00011330e+01, -6.19455490e+01,
       -5.18542725e+02, 5.93089561e+01, -3.51626892e+02, 1.84273239e+02,
       9.07979965e+00, -4.28491486e+02, -5.52113190e+01, 1.95469742e+01,
       -3.92843689e+02, 2.37939636e+02, -3.13275757e+02, 1.01548279e+03,
       -9.77397766e+01, -8.18750305e+01, -3.48965179e+02, 3.98056946e+02,
       -2.23954132e+02, 1.08227165e+02, -9.38684311e+01, -3.12122459e+01,
       -7.36248169e+02, -5.36489868e+02, -3.29096588e+02, 6.63745239e+02,
       -3.81033722e+02, 1.37671753e+02, 1.62181259e+02, 6.46148376e+01,
       -3.83513641e+02, -4.33881927e+02, 8.73872986e+02, 2.89786499e+02,
       -3.36894623e+02, -4.63380493e+02, -1.10502487e+02,
       -8.13137695e+02, 4.05882721e+01, -8.65262985e+01, 2.78731613e+01,
       3.32356506e+02, -2.58402863e+02, 3.68623962e+02, -5.62949562e+01,
       -5.82785072e+01, -4.00210663e+02, 4.43351807e+02, -2.50421432e+02,
       -7.46704636e+01, 6.28236023e+02, -1.75023651e+02, -6.04961365e+02,
       -6.06321655e+02, 1.82873764e+02, 7.05904358e+02, -8.89707336e+01,
       -6.80447617e+01, 3.16581512e+02, 9.56436157e+01, 9.18391037e+01,
       -4.46322357e+02, 4.17596710e+02, 1.72733841e+02, -1.65420395e+02,
       -1.37462711e+01, -2.10179993e+02, 6.40363098e+02, -4.11170959e+02,
       3.58816071e+01, -4.18380493e+02, -4.18874664e+02, -1.26330818e+02,
       9.10316223e+02, -2.73352325e+02, 3.00069092e+02, -2.18787872e+02,
       -1.93571884e+02, 5.90034729e+02, -6.73095474e+01, 6.83260498e+01,
       -4.97411041e+01, -2.87937836e+02, -2.47907425e+02,
       -5.95983582e+01, -9.08484558e+02, 2.51025482e+02, -9.27947159e+01,
       -6.04731827e+01, 1.16611664e+02, 3.41529694e+01, 2.43265182e+02,
       6.97546234e+01, 5.25489502e+02, 3.13449860e+02, -4.22870148e+02,
       -3.38135712e+02, -5.84743958e+02, -9.73355103e+01, 2.43325348e+02,
       4.16933228e+02, 4.12705780e+02, -3.34577332e+02, -2.42062149e+02,
       3.24711487e+02, 2.05933289e+02, 6.61369202e+02, -7.88627136e+02,
       3.50691101e+02, -1.37355179e+02, -2.04442093e+02, -1.33934565e+01,
       -6.05572510e+02, -2.99178345e+02, -2.26283920e+02, 3.50480080e+01,
       -5.31064529e+01, 7.67172089e+01, -1.28949753e+02, 6.07276382e+01,
       2.59445457e+01, -5.06146164e+01, 1.51502365e+02, 5.44814575e+02,
       1.03587799e+02, 3.58089111e+02, -9.71252823e+01, 1.47717789e+02,
       4.85486794e+01, -3.94352078e+00, -2.74102661e+02, 5.87705078e+02,
       3.92555298e+02, -3.18011108e+02, -1.34885040e+02, 1.35905212e+02,
       1.32087906e+02, 3.96725494e+02, 2.97013580e+02, -8.39612274e+01,
       1.04122673e+02, -2.62618408e+02, -1.81483322e+02, -6.42813263e+01,
       -3.31675781e+02, 1.85933868e+02, 4.24279572e+02, 8.65978546e+01,
       -5.11737633e+01, -1.48048187e+02, -1.49223251e+02,
       -5.65460510e+01, 2.15053970e+02, -7.24638672e+01, -2.84721313e+02,
       -3.25553131e+00, 3.49758301e+02, 3.75877838e+02, -2.67060181e+02,
       -1.01720215e+02, 3.04941559e+02, -5.43035522e+02, -1.82135773e+02,
       -2.47341537e+02, -1.96180649e+01, -2.24266785e+02, 4.55376862e+02,
       -7.47160110e+01, -3.25777466e+02, -6.87306213e+00, 9.81336060e+01,
       3.44156830e+02, 8.50679626e+01, 4.10343742e+01, -2.66175690e+02,
       1.82102356e+02, 5.93327179e+01, -4.44886292e+02, -3.46084328e+01,
       2.09523254e+02, -3.07373291e+02, 1.60974167e+02, 1.58511934e+01,
       -4.21698822e+02, -1.63423920e+02, -6.63019657e+00, 3.40329346e+02,
       -1.21811127e+02, 1.71216217e+02, -1.00399956e+02, -3.78748016e+02,
       2.40241074e+02, -6.03223816e+02, 5.82210022e+02, -5.15266151e+01,
       4.73525047e+01, -8.95243607e+01, 8.94914551e+01, -1.13731293e+02,
       7.46354599e+01, -1.29797983e+01, -1.26597542e+02, 6.74058228e+02,
       -1.64841499e+01, 8.76255798e+01, -5.91576904e+02, 1.39646301e+02,
       -1.04226196e+02, -6.96497879e+01, -1.60044006e+02, 3.49512299e+02,
       -2.39238770e+02, -2.57242241e+01, -3.73027954e+01,
       -3.61461182e+02, -3.81096008e+02, 6.24156799e+01, 5.64673584e+02,
       1.03208054e+02, -1.51441742e+02, 1.00033707e+02, 4.10653198e+02,
       3.69003448e+02, 3.35706116e+02, 1.30206268e+02, -9.17193604e+00,
       -1.35260361e+02, 2.12292557e+02, -2.22971313e+02, 2.07010231e+01,
       -1.83674221e+01, -1.36066895e+02, 3.03977127e+01, 4.11280304e+02,
       -4.17361679e+01, 1.82912170e+02, -5.46821960e+02, -3.01717339e+01,
       -3.22119873e+02, -2.94265625e+02, -1.16583199e+02,
       -6.53960953e+01, -1.41634567e+02, -1.28398956e+02, 1.17008232e+02,
       -5.53795929e+01, 2.68779480e+02, -9.04867737e+02, -7.56775742e+01,
       -5.79379005e+01, -3.24787048e+02, -4.54685730e+02,
       -5.94091568e+01, -4.86989594e+01, -4.61178246e+01, 1.71751556e+02,
       2.72392998e+01, -1.05619102e+02, 3.67412872e+02, -1.63001003e+01,
       2.54941299e+02, 1.85893311e+02, 4.88771439e-01, -2.67290421e+01,
       -2.26187973e+01, -4.66682068e+02, 3.78186279e+02, -1.16902168e+02,
       3.18316040e+02, -1.06251465e+02, 4.32310211e+02, -5.64203613e+02,
       -2.61884369e+02, 6.64655495e+00, 3.97126541e+01, -2.19060249e+01,
       -6.19526596e+01, -3.13766052e+02, -1.59987778e+02, 1.91185760e+00,
       1.59410828e+02, 2.73148163e+02, 2.89299103e+02, 2.87005981e+02,
       -2.77238007e+02, -1.90461258e+02, 4.33695679e+01, -1.37710251e+02,
       1.47274048e+02, -1.54333633e+02, 5.04495941e+02, -1.00892639e+00,
       4.53945282e+02, 3.82703209e+01, -8.88627625e+01, -1.05499863e+02,
       -1.01867386e+02, 4.93697510e+01, 8.55296249e+01, 1.47093399e+02,
       6.32019592e+02, -7.90636597e+02, -1.08788383e+02, 1.48319672e+02,
       -5.23593216e+01, -6.08633606e+02, 1.04022118e+02, -2.03639618e+02,
       -5.17549286e+01, -3.18112854e+02, 2.47031647e+02, -5.12529602e+02,
       1.49411087e+02, -8.54925415e+02, -1.82903427e+02, -1.59356277e+02,
       -1.91810131e+01, 2.48656158e+02, -5.75535507e+01, -1.57308655e+02,
       3.63496399e+02, -4.39214813e+02, 3.67508698e+01, -2.33091461e+02,
       1.00939911e+02, -4.37949493e+02, -6.80851822e+01, -1.87026031e+02,
       1.51261520e+02, -1.58607010e+02, -1.71172577e+02, -9.36765366e+01,
       -4.70445221e+02, -1.38990753e+02, 4.84278450e+01, -2.47629333e+02,
       -1.44215164e+01, -2.78316589e+02, -4.81577873e+01, 1.75417145e+02,
       -2.03461945e+02, 1.80653782e+01, -2.78233704e+02, 1.01124367e+02,
       4.45396851e+02, -4.11239052e+01, 1.04877655e+02, -5.94626465e+02,
       2.97507141e+02, -1.51877792e+02, 1.14377205e+02, -3.15326481e+01,
       9.00397522e+02, 4.50712128e+02, 3.22291290e+02, -1.99614594e+02,
       2.43223434e+02, -4.07132339e+00, -7.13641510e+01, 1.37598663e+02,
       6.84333496e+02, 8.48290157e+00, -4.46930389e+02, 3.10727005e+01,
       3.04774078e+02, -2.30455643e+02, 1.09916435e+02, 4.49650391e+02,
       -1.22235603e+02, -3.57001305e+00, 5.89829895e+02, -6.77985657e+02,
       1.92663773e+02, -8.57653351e+01, -5.21765503e+02, 1.56303345e+02,
       2.90289124e+02, -2.18801117e+02, 3.83375061e+02, 1.01557060e+02,
       -1.49219254e+02, 1.87317520e+02, -2.00440994e+02, -1.89716660e+02,
       3.70831970e+02, -1.67067963e+02, 1.29302475e+02, -1.55982758e+02,
       1.73841125e+02, -4.05590820e+01, -3.20767609e+02, -2.02692780e+02,
       1.31212570e+02, -9.53337784e+01, -1.07551849e+02, -6.66841888e+01,
       -2.10420395e+02, -2.57900639e+01, -3.39071075e+02, 5.04900055e+01,
       8.95980377e+01, -9.11427002e+01, 3.17642578e+02, -8.03784729e+02,
       -2.57617859e+02, -3.78930016e+01, -1.90459442e+02, 1.12601662e+02,
       -2.71765106e+02, 2.51686813e+02, 1.39388046e+02, -1.40868774e+02,
       4.38176483e+02, 1.46800079e+02, -8.48172150e+01, 5.65772667e+01,
       8.52052841e+01, -4.68736076e+01, 6.84827423e+01, 6.17128181e+01,
       1.44728790e+02, 1.45579901e+01, 2.07136795e+02, -1.62123657e+02,
       -3.11706757e+02, -1.75174194e+02, 2.66709564e+02, 5.37504028e+02,
       -7.52298126e+01, 3.18720245e+01, -5.11875946e+02, 9.16866272e+02,
       6.84474060e+02, -6.59093872e+02, 2.99830231e+02, -6.80713959e+01,
       -6.17650261e+01, 2.95037689e+02, 4.19763062e+02, -2.37806282e+01,
       2.32789429e+02, -7.23159790e+01, -6.20695038e+01, -2.41913330e+02,
       -1.80768642e+01, -4.74213226e+02, -1.37268417e+02, 1.17066338e+02,
       3.10064423e+02, -1.06694443e+02, 2.77528381e+02, -6.65914062e+02,
       -3.31193962e+01, 2.38943619e+02, -2.21316193e+02, -6.26546936e+01,
       -1.08528122e+02, -1.91031494e+01, 3.13350677e+02, -5.14766788e+00,
       2.04087402e+02, -1.27299871e+01, 1.15261528e+02, 1.15983017e+02,
       -1.82795013e+02, -1.15940758e+02, -6.21287170e+02, 4.42597107e+02,
       -2.86907749e+01, -4.83147659e+01, -6.66398010e+02, 1.16245056e+02,
       -5.54585205e+02, -3.21561584e+02, 9.64338837e+01, -7.44480957e+02,
       -2.25012039e+02, -2.21679611e+01, 3.45847740e+01, -2.42056305e+02,
       -9.23128418e+02, -1.68839233e+02, 2.00934029e+00, -4.18533722e+02,
       -3.06340179e+02, -2.97421387e+02, -5.02096588e+02, 5.11194725e+01,
       -4.31168243e+02, 8.89937973e+01, -1.58281326e+02, -3.02926903e+01,
       -3.40526917e+02, -7.98863754e+01, 6.38809875e+02, -3.53672218e+01,
       -5.47733765e+02, 3.33972015e+02, -8.41260147e+01, -2.50362301e+01,
       -7.53251343e+01, 1.28349731e+02, -1.00220444e+02, 5.96065788e+01,
       3.18985046e+02, -5.14901917e+02, 1.98436020e+02, 1.24240608e+02,
       -1.50073517e+02, -6.10825806e+01, -6.67962646e+01,
       -2.54204498e+02, 1.13595764e+02, 4.95643799e+02, 1.76064026e+02,
       1.18014481e+02, 1.38182693e+02, 3.35118561e+02, 1.24685242e+02,
       -1.56482382e+01, -1.43919998e+02, -6.44185867e+01,
       -3.56385345e+01, -2.61743195e+02, 2.58240845e+02, -3.33272247e+01,
       -1.16181183e+02, 1.24526306e+02, 2.51719437e+02, -2.30446426e+02,
       2.87364227e+02, -6.08514977e+01, -3.17531052e+01, -1.41165466e+02,
       -1.49613037e+02, 2.76376434e+02, -3.58735382e+02, 9.11380081e+01,
       -2.60907990e+02, -1.54189133e+02, 1.41773102e+02, -8.91654846e+02,
       -1.74496964e+02, -3.43215820e+02, -1.59714966e+02, 1.57652817e+01,
       1.45083008e+02, -1.29125198e+02, 2.02454544e+02, -2.66979752e+01,
       5.80003548e+00, -2.11892967e+01, -1.28399750e+02, -2.28067673e+02,
       3.64677399e+02, -1.54774597e+02, 1.67232178e+02, -4.53343323e+02,
       -1.62842560e+02, 2.39988358e+02, 2.63717041e+02, -4.18771515e+02,
       -3.57181427e+02, -6.53655777e+01, 2.97880859e+02, 2.55002014e+02,
       -1.94344803e+02, 1.44811234e+02, -2.42383530e+02, -1.88245964e+01,
       2.69908020e+02, 7.44316589e+02, 1.15098213e+02, -2.67999817e+02,
       3.23898834e+02, 3.77996399e+02, -1.09248947e+02, -3.07470360e+01,
       1.30034424e+02, 1.07409077e+01, 2.27969208e+02, -3.29464355e+02,
       8.68184052e+01, 3.08915558e+02, -5.49177979e+02, 1.80941486e+01,
       -2.89150726e+02, 2.05102966e+02, -3.18700531e+02, 8.03517303e+01,
       2.62168854e+02, 9.25114594e+01, -5.31499977e+01, 2.32748909e+01,
       -4.94831429e+01, 2.07262314e+02, 3.13863037e+02, 1.63663116e+02,
       -1.75497665e+02, -1.92812332e+02, -3.82809753e+02,
       -1.87218628e+02, 2.66444122e+02, 6.29515533e+01, -5.45480347e+02,
       -2.59273132e+02, -3.07648254e+02, 2.86884613e+02, -1.48312592e+02,
       -1.30320084e+02, -6.51845703e+01, 8.65679779e+01, 2.29065308e+02,
       8.11826172e+01, -3.46395294e+02, -1.90563538e+02, 1.03672356e+02,
       -5.59477600e+02, -9.93243866e+01, 1.21081495e+01, 4.44854614e+02,
       -3.87211914e+01, -3.81732178e+02, -2.38665344e+02, 5.67310913e+02,
       -2.78090706e+01, 4.16816071e+02, -2.23403912e+01, -4.82680016e+01,
       1.89644913e+02, -3.12017151e+02, -7.40895386e+02, 2.51424438e+02,
       -2.17588043e+02, -1.46063797e+02, -1.93104706e+02,
       -2.43663483e+02, 1.01326775e+02, -5.28120270e+01, 8.47975464e+01,
       1.46030655e+02, -1.20783920e+02, -6.68918991e+01, -1.17151848e+02,
       6.50653229e+01, 2.85068359e+02, -2.00125854e+02, -5.50920044e+02,
       5.71269836e+02, -1.57567535e+02, -3.94662659e+02, -1.89320404e+02,
       -6.63745346e+01, -2.01930145e+02, -2.33796143e+02, 3.35062592e+02,
       5.92338829e+01, -2.41073551e+01, -3.18878082e+02, -3.58591537e+01,
       -1.71864761e+02, -9.57630127e+02, -1.21813828e+02, 2.43450256e+02,
       -2.48554382e+02, -2.52728455e+02, 1.31456543e+02, 1.37919617e+02,
       1.10362072e+01, 2.59506805e+02, -1.02569557e+02, 9.01494408e+00,
       -1.66782822e+02, 1.31034409e+02, -1.97798370e+02, -4.88353043e+01,
       3.15284332e+02, -1.85390015e+02, 1.65369072e+01, 7.58562012e+01,
       1.93275665e+02, -2.24896988e+02, 2.31867477e+02, 3.45811462e+02,
       -1.87480713e+02, 1.08621323e+02, 3.27195190e+02, 2.04576828e+02,
       1.59454559e+02, 6.77045059e+01, 3.41746460e+02, -7.11762634e+02,
       1.53157791e+02, 2.35288391e+01, -1.53158016e+01, 1.97163605e+02,
       2.98728516e+02, -9.23485565e+01, -1.01050453e+02, -1.34298416e+02,
       1.65777969e+02, -6.02312775e+01, 1.56415909e+02, -4.07529144e+01,
       -1.73146423e+02, 6.23036118e+01, -7.06581650e+01, 7.88211121e+02,
       6.45310974e+00, 4.10252151e+01, 7.00251846e+01, -1.56616943e+02,
       -4.16942535e+02, -4.52240868e+01, -7.24600983e+01,
       -5.81068754e-01, -8.68589554e+01, -9.66986542e+01, 1.30450806e+02,
       3.86351013e+01, 6.68901901e+01, 3.40798218e+02, -1.11083633e+02,
       4.99366302e+02, 9.73850784e+01, -1.79137192e+01, 2.41961136e+02,
       1.63787804e+01, -1.67352951e+02, 4.21571198e+01, 1.92586029e+02,
       1.39513428e+02, 1.44928436e+02, -9.45660305e+00, 1.23467850e+02,
       -1.65043518e+02, 1.00049805e+02, -4.77042351e+01, 7.65445251e+01,
       -7.40427704e+01, -3.63411652e+02, -2.46352753e+02,
       -7.37071686e+01, 1.31677948e+02, -1.96319962e+02, -1.41460922e+02,
       -2.26719322e+01, 4.15382271e+01, -4.10877655e+02, -3.11967865e+02,
       -3.26784851e+02, 1.89333542e+02, 9.76209412e+01, -6.02412176e+00,
       -3.49248596e+02, -1.02508385e+02, 1.17765305e+02, -7.92453613e+01,
       -3.50276215e+02, -1.72424438e+02, 9.87630615e+01, 3.63202820e+02,
       7.57549381e+00, -1.66063217e+02, -4.69929733e+01, -1.79861603e+01,
       -1.97322128e+02, -5.85958529e+00, -1.32259445e+02,
       -2.52354584e+02, -4.35127533e+02, 4.68004646e+01, -1.34776382e+02,
       9.64577713e+01, 5.32540970e+01, 8.85916672e+01, -1.22554150e+01,
       -1.07665573e+02, -2.91988373e+02, -1.38386078e+02,
       -7.27706299e+01, -8.24899231e+02, 1.21029121e+02, -1.19845604e+02,
       1.68408356e+02, 5.20529213e+01, -1.98024155e+02, -1.13114977e+01,
       -4.80411621e+02, 1.31303391e+02, -1.00225204e+02, 1.38206299e+02,
       -2.19528522e+01, 2.41182251e+02, -1.13151382e+02, 1.30379276e+01,
       -2.25349197e+01, 3.64302158e+00, -4.59792786e+01, -1.23676710e+01,
       -3.11675232e+02, -1.45783569e+02, -2.84361053e+02,
       -6.26971092e+01, -2.91133972e+02, -6.60616302e+01,
       -3.08148468e+02, 3.37666245e+01, -1.36275806e+01, 2.62930584e+01,
       -1.86764023e+02, 1.00619568e+02, 5.50653315e+00, 1.48050858e+02,
       -4.52611664e+02, -1.29268204e+02, 6.30342484e+01, -3.59658470e+01,
       -3.61810883e+02, -2.53843338e+02, 8.32932358e+01, 8.93705521e+01,
       3.75546112e+02, -1.12412659e+02, -1.65008087e+02, 1.95671631e+02,
       -2.93944794e+02, -2.53304306e+02, -6.83394928e+01, 9.53432159e+01,
       2.43208466e+02, 1.65584900e+02, 1.10655678e+02, 1.03443382e+02,
       1.82159698e+02, 3.04889069e+01, -2.15302856e+02, 1.53454010e+02,
       1.07571373e+02, 4.46882362e+01, -1.49292786e+02, -1.20948090e+02,
       1.56722137e+02, 1.16147713e+02, -4.78263283e+00, 1.91410583e+02,
       -1.00292381e+02, 8.77555466e+01, 6.21520386e+02, 1.09292137e+02,
       4.30548706e+01, -2.54905121e+02, -3.41959106e+02, 6.03960037e+01,
       2.81716125e+02, 2.42783966e+01, -1.66200317e+02, 2.40076279e+02,
       1.43879181e+02, -3.67359123e+01, -1.05345940e+02, 1.16121292e+02,
       6.63830643e+01, -1.82206097e+01, -4.29026718e+01, 4.06128120e+01,
       -1.20342834e+02, -5.27569084e+01, -4.27967949e+01,
       -4.28273849e+01, -5.32006836e+02, 6.81233826e+01, 1.36324890e+02,
       2.09073563e+01, -3.03522369e+02, 4.00410957e+01, -2.20980591e+02,
       -1.04143761e+02, -4.32030731e+02, -9.79743042e+01,
       -4.34108307e+02, 8.56370316e+01, -1.80338402e+01, 1.96044098e+02,
       1.97419186e+01, 2.48209442e+02, -2.40100918e+01, -1.65783020e+02,
       7.06436768e+01, 5.94690285e+01, 8.19480209e+01, 1.23328819e+01,
       -2.90410339e+02, -4.36849976e+01, -3.61214417e+02, 1.58560677e+01,
       1.59682140e+01, 3.38407745e+01, -5.12325668e+01, 1.66631592e+02,
       -6.24966507e+01, -4.57591820e+01, 1.66339920e+02, 3.50646248e+01,
       1.10539711e+02, -1.04331696e+02, -1.77782288e+01, 1.91978550e+01,
       -2.16246338e+02, -1.55462158e+02, -1.70040741e+02,
       -2.29930832e+02, -2.50229919e+02, -7.48899765e+01, 1.07340256e+02,
       4.65284157e+01, -6.02114990e+02, -1.44956970e+02, 1.00014954e+02,
       -2.36106537e+02, 5.26477844e+02, -1.99931698e+01, -3.20272217e+01,
       3.49802055e+01, 2.22927414e+02, -8.80597229e+01, 1.11275093e+02,
       -6.99580536e+01, 2.45576416e+02, -3.82282043e+02, 3.69547913e+02,
       7.39318008e+01, 6.95122147e+01, 8.35379486e+01, 1.07795723e+02,
       -1.85377792e+02, -1.12941544e+02, 3.25520554e+01, -1.06667728e+01,
       5.68396568e+01, 5.47871704e+01, -1.57787842e+02, -8.28820953e+01,
       1.66025162e+01, -7.14714355e+01, -3.42257874e+02, 9.79302368e+01,
       -3.80118141e+01, 7.17058258e+01, -1.59457825e+02, 1.49239426e+01,
       -9.03213959e+01, 4.49153320e+02, -8.03853989e+01, -1.15434151e+01,
       8.57679291e+01, 4.85337973e+00, -7.68213959e+01, -8.70637970e+01,
       -5.37746906e+00, 7.68569946e+01, 6.46017227e+01, -3.65197792e+01,
       4.86554956e+00, 7.56074600e+01, 5.23713112e+01, 1.32593765e+02,
       -5.74536247e+01, -1.23890411e+02, 2.23552429e+02, 2.74796886e+01,
       -1.92467842e+01, 4.17940002e+02, 2.59682298e+00, -3.54826294e+02,
       4.76007751e+02, -7.54493027e+01, 4.94027557e+01, 2.39872391e+02,
       -2.40479996e+02, -7.79180908e+01, 1.11471619e+02, -2.56952850e+02,
       6.57080460e+01, -1.48951530e+00, -1.00667603e+02, -5.74469452e+01,
       -2.35188007e+01, -9.22369289e+00, -3.91313133e+01,
       -3.01066223e+02, 1.41156092e+01, -1.81940826e+02, -2.43834591e+01,
       3.68112068e+01, 4.81232262e+00, 3.97484493e+00, -4.07537880e+01,
       1.71285477e+02, -1.16761360e+02, -2.42245560e+02, 4.99756279e+01,
       -2.83625641e+02, 2.66494389e+01, 2.47980942e+02, 6.41876892e+02,
       -4.02216034e+01, 1.07992233e+02, 5.27864990e+01, 9.40335922e+01,
       7.55414658e+01, 3.40017281e+01, 1.81318634e+02, 1.44418716e+00,
       -3.68890190e+01, 7.34859543e+01, 5.43429337e+01, 3.14606232e+02,
       -1.02975883e+01, 5.39386978e+01, 3.34532562e+02, 8.53756409e+01,
       7.22135086e+01, 9.88863754e+00, -2.59351025e+01, -3.85069458e+02,
       -2.89663944e+01, 1.69039345e+01, 1.72397415e+02, -2.78973961e+01,
       8.06909790e+01, -4.90973320e+01, -1.13243431e+02, 1.09795141e+01,
       3.97338409e+01, -4.42354584e+01, 6.36942024e+01, 1.16477989e+02,
       2.94306545e+01, 6.12527924e+01, -5.46698547e+02, -2.69852276e+01,
       -5.13357056e+02, 1.49159460e+01, -2.94217377e+02, -8.02606735e+01,
       -1.95135086e+02, 3.12953644e+01, -4.37907135e+02, -1.40809525e+02,
       -7.50929993e+02, 1.31711960e+01, -1.74656387e+02, -2.16274166e+00,
       -3.07453949e+02, 4.44049835e+01, -1.64131790e+02, 9.77080345e+00,
       -3.28828430e+02, 3.75071831e+01, -5.32969910e+02, -1.51626770e+02,
       -5.60842102e+02, -3.22482872e+01, -2.27669479e+02, 3.57322540e+02,
       -3.05436951e+02, 1.08340584e+02, -2.64474304e+02, 1.26288551e+02,
       -6.27328587e+00, -1.76352367e+01, 3.70549431e+01, -7.43170881e+00,
       4.33351555e+01, -1.14349957e+01, -6.88183498e+00, -4.15764999e+01,
       3.12026405e+01, 9.97647858e+00, 1.40060110e+01, -7.06195831e-04,
       -8.37434292e-01, -6.90460205e-04, 6.85164833e+00, -6.15151520e+01,
       -6.15410233e+00, -7.09056854e-04, 1.45017433e+01, -1.67878056e+01,
       -2.97645626e+01, 4.03592033e+01, 1.02691803e+01, -6.95228577e-04,
       -4.49169207e+00, -1.49085093e+00, -8.65648806e-01,
       -1.42418170e+00, -8.61518097e+00, 1.67504525e+00 ]
