%YAML:1.0
---
WeightsK: !!opencv-matrix
   rows: 29
   cols: 105
   dt: f
   data: [ -1.67439368e+03, -6.45200684e+02, -3.08824731e+03,
       -1.23377332e+03, -5.08192627e+02, -2.52044897e+03,
       -8.90982910e+02, 1.51941541e+03, 2.53551953e+03, 4.38941748e+03,
       1.79571472e+03, 5.97819141e+03, 1.95518054e+03, 3.16913477e+03,
       8.63942871e+03, 8.58673438e+03, 5.14958545e+03, 3.95539941e+03,
       8.39220117e+03, 1.17668655e+02, 7.15110596e+03, -1.83427844e+03,
       -3.60527679e+02, -5.45890686e+02, -9.26876404e+02,
       -1.27257727e+03, -2.71938623e+03, 2.77685547e+01, -4.84346143e+03,
       -4.50001172e+03, -4.81647510e+03, -4.60946582e+03,
       -4.87624756e+03, -3.83270361e+03, -4.74626904e+03,
       -3.14297998e+03, -5.31430713e+03, -4.10825244e+03,
       -2.64741309e+03, -7.09994580e+03, -5.50386963e+03,
       -4.71135156e+03, 2.93286914e+03, 5.14597656e+03, 8.69623535e+03,
       8.62958789e+03, 9.91813770e+03, 6.87137744e+03, 8.76360547e+03,
       6.74324756e+03, -1.83326099e+03, 6.13223438e+03, -3.42382202e+03,
       -6.06709656e+02, -2.28871021e+03, -1.79559265e+02, 1.29398938e+03,
       -9.94976440e+02, -1.37020081e+03, 3.22882690e+03, 2.12531433e+02,
       -1.22787341e+03, -3.47628735e+03, -2.91918555e+03,
       -4.75690521e+02, -1.08520874e+03, -1.25413696e+03,
       -6.66772827e+02, -4.57864600e+03, -2.16969458e+03,
       -8.81125098e+03, -1.02635645e+04, -1.05684873e+04,
       -5.74074316e+03, -6.77883350e+03, -1.23180791e+04,
       -7.33753857e+03, -4.70208203e+03, -8.07543555e+03,
       -7.06998438e+03, -5.67361621e+03, -5.58424609e+03,
       -6.66245850e+03, -5.12667578e+03, 5.82118652e+03, 6.23108203e+03,
       6.72514404e+03, 6.19279492e+03, 9.39949902e+03, 7.05445850e+03,
       6.45531104e+03, -1.79967322e+03, -1.63793250e+03, -2.00282031e+03,
       -8.04775391e+02, -2.90316406e+03, -3.58534302e+03,
       -4.22741602e+03, 6.30409375e+03, 9.53966504e+03, 8.30888867e+03,
       8.83959570e+03, 6.17166211e+03, 5.35831543e+03, 8.86559961e+03,
       1.31875574e+03, 5.44835876e+02, 1.56782605e+03, 1.49141052e+03,
       -5.89659195e+01, 2.46482202e+03, -9.93630371e+02, -1.68006921e+03,
       -2.00914941e+03, -3.08598706e+03, -1.87493176e+03,
       -3.18957764e+03, -1.90944226e+03, -3.44163232e+03,
       -1.38687012e+03, -2.72827563e+03, -9.78569458e+02,
       -9.51853882e+02, -2.91719458e+03, 2.56089380e+03, -4.29230762e+03,
       2.16411694e+03, -3.70713959e+02, -7.14908203e+02, -3.01571167e+02,
       1.06152393e+03, 5.61326782e+02, -2.15371582e+03, 9.05514062e+03,
       8.62935547e+03, 9.01637891e+03, 8.29153516e+03, 8.44643066e+03,
       7.78881934e+03, 8.74793164e+03, -6.69278027e+03, -2.77187573e+03,
       -4.29552441e+03, -6.07375049e+03, -3.16749512e+03,
       -4.43929883e+03, -5.95361133e+03, 1.62660608e+03, 1.52899841e+03,
       -1.75884338e+03, -8.58108643e+02, -1.72622083e+03,
       -1.42689185e+03, -2.62304077e+03, -2.49182275e+03, 5.37456885e+03,
       -2.48052612e+03, 6.00483936e+03, 4.12703516e+03, 5.17574707e+03,
       2.53746582e+03, 5.79991553e+03, 7.59538916e+03, 7.08117920e+03,
       3.22923730e+03, 4.58257568e+03, 7.19788232e+03, 6.40837891e+03,
       2.22974365e+02, -2.58557642e+03, -2.37668677e+03, -1.66603369e+03,
       -2.35609985e+03, 1.20710547e+03, -3.01992407e+03, -1.10240889e+04,
       -1.15000742e+04, -1.06341846e+04, -1.31742119e+04,
       -1.39097373e+04, -4.48660400e+03, -1.31880020e+04, 2.20835742e+03,
       6.30917529e+03, 3.36705981e+03, 2.67946045e+03, 2.04733301e+03,
       4.02892896e+03, 1.88548804e+03, 2.37910156e+03, 2.09058154e+03,
       1.06839343e+03, 1.86002344e+03, -6.87032959e+02, 1.17170923e+03,
       1.53363379e+03, 1.50256943e+02, 1.51538367e+03, -6.07900085e+02,
       -3.64699463e+02, 4.74488281e+02, 3.08069019e+03, 1.52374634e+03,
       -1.00182678e+03, -1.20252063e+03, -5.14447632e+02,
       -1.13819019e+03, -1.80474072e+03, -2.08054688e+03,
       -1.66252832e+03, -1.30005872e+03, -1.30183984e+03,
       -7.77651306e+02, -1.54541092e+02, -1.78008887e+03,
       -8.84107971e+02, -3.38462646e+03, -2.74377197e+03,
       -2.60727881e+03, -4.00130347e+03, -2.93368628e+03,
       -5.36646973e+03, -6.20403381e+02, -5.76111035e+03,
       -5.99421326e+02, -4.76693451e+02, 1.61758997e+03, 1.84038135e+03,
       -5.81223633e+02, 3.95639502e+03, -1.97544849e+03, 4.93119971e+03,
       5.43786914e+03, 5.18455811e+03, 5.41911816e+03, 5.04326514e+03,
       5.14226025e+03, 3.27292236e+03, -4.40644385e+03, -4.55743799e+03,
       -4.76477344e+03, -4.53163379e+03, -4.64630176e+03,
       -3.43461426e+03, -4.36035254e+03, -4.13986320e+01, 2.28145215e+03,
       1.80727600e+03, 1.06206201e+03, 1.77859387e+03, 1.39831506e+03,
       2.49581665e+03, 3.13317383e+03, 2.44241821e+03, 7.61566696e+01,
       1.10075830e+03, -2.73264862e+02, 2.92051074e+03, -1.17881714e+03,
       -5.16087695e+03, 1.10292749e+03, -4.95341797e+03, -8.11350159e+02,
       9.47930176e+02, 2.89247266e+03, 3.61781982e+03, -4.96257568e+02,
       -1.54192578e+03, -2.19089844e+03, -1.86602454e+03,
       -2.26581958e+03, -1.52994336e+03, -3.04046265e+03, 4.82824951e+03,
       2.70701074e+03, 3.20564868e+03, 4.05361621e+03, 3.22034180e+03,
       4.64264355e+03, 3.29190894e+03, -1.03594666e+03, -2.32169458e+03,
       -1.00504083e+03, -3.99739429e+03, -4.04468604e+03,
       -9.26015564e+02, -3.92558521e+03, -1.97860645e+03,
       -4.56650195e+03, -2.35302148e+03, -3.05934985e+03,
       -3.00264014e+03, -1.85272925e+03, -2.64862061e+03, 5.20728809e+03,
       5.16889502e+03, 4.98953857e+03, 5.04236865e+03, 1.83621899e+03,
       4.47479541e+03, 5.20897412e+03, 5.87405371e+03, 5.53677783e+03,
       4.68313965e+03, 5.58127832e+03, 5.10406201e+03, 4.73823340e+03,
       4.69145654e+03, -3.96011816e+03, -5.78479883e+03, -4.62112012e+03,
       -5.43465381e+03, -6.42621338e+03, -4.84695850e+03,
       -3.89634668e+03, 1.64469836e+03, 1.38350439e+03, 2.16540332e+03,
       1.46400867e+03, 1.37006909e+03, 2.47074414e+03, 3.04021997e+03,
       -1.38633740e+03, -1.25624463e+03, -3.07768701e+03,
       -1.82918933e+03, -2.08937720e+03, -1.72216882e+03,
       -3.18014893e+02, 7.20138306e+02, 2.89150269e+03, 1.93588354e+03,
       1.75687744e+03, 3.10581519e+03, 2.08507935e+03, 4.54532715e+03,
       9.32258301e+02, -3.87465820e+02, 3.69521667e+02, 5.86600037e+02,
       1.17999109e+03, 1.47054797e+03, 5.77803711e+02, 6.78870789e+02,
       2.35926956e+02, 4.22993073e+02, 2.14970337e+02, 5.54071167e+02,
       -6.05409431e+01, 5.45387268e+02, -6.31202246e+03, -4.50141699e+03,
       -5.57944873e+03, -5.99306738e+03, -3.19323291e+03,
       -4.93960400e+03, -5.03073389e+03, -4.60541650e+03,
       -1.87666382e+03, 4.05405518e+02, -8.26158569e+02, 6.15060913e+02,
       -5.23583008e+02, 2.76605347e+03, -2.75471338e+03, -3.39183105e+02,
       -2.80760498e+03, 7.79462524e+02, -1.14427319e+03, 1.32225439e+03,
       -7.90174377e+02, -5.98421997e+02, 1.62515308e+03, 2.23417871e+03,
       1.40569019e+03, 1.58649792e+03, 6.44761047e+01, 4.14162939e+03,
       -4.77527539e+03, -6.87263965e+03, -6.44456543e+03,
       -6.53634912e+03, -6.88213379e+03, -2.02238989e+03,
       -4.67015234e+03, 4.24488721e+03, 6.12418506e+03, 5.73896240e+03,
       3.10121729e+03, 4.35238135e+03, 8.31225293e+03, 4.90085938e+03,
       -3.78468945e+03, 2.73804626e+02, -1.70931775e+03, -1.50692969e+03,
       -2.20966577e+03, -1.30416943e+03, -2.69101099e+03, 4.07534473e+03,
       4.36696729e+03, 2.97179907e+03, 4.30943311e+03, 3.72354370e+03,
       3.90969360e+03, 5.24141797e+03, -3.40630341e+02, 1.11952527e+03,
       1.58674316e+01, 2.89080078e+02, 7.04500671e+02, 2.71102319e+03,
       2.40587915e+03, -3.68562476e+03, -9.25932251e+02, -8.74828491e+02,
       -7.34600464e+02, -3.25048853e+03, -4.10800488e+03, 1.08543005e+03,
       -7.24003857e+03, -6.56444092e+03, -7.67360107e+03,
       -5.34767822e+03, -7.69754199e+03, -6.62810449e+03,
       -7.51564014e+03, -1.38847314e+03, -2.94592377e+02, 5.10436951e+02,
       -1.04584229e+03, -1.28418152e+02, 1.42742590e+03, -2.39901099e+03,
       -8.66976868e+02, -3.56159424e+03, -3.72701489e+03,
       -3.35739746e+03, -4.19947607e+03, -2.01738367e+03,
       -4.65516846e+03, 2.06353247e+03, 4.06476733e+03, 2.73552393e+03,
       2.69742090e+03, 1.80121008e+03, 1.74143616e+03, 1.11986743e+03,
       1.87262927e+03, 9.76168823e+02, 1.57015930e+03, 1.02094604e+03,
       1.10206396e+03, 1.71384180e+03, 1.59857153e+03, 1.58364471e+02,
       1.00431354e+03, 5.13544556e+02, 8.72634430e+01, 9.72815247e+02,
       1.41373572e+03, 6.51364319e+02, 5.20202002e+03, 4.08743140e+03,
       2.52883472e+03, 3.95501099e+03, 3.37231421e+03, 5.33719580e+03,
       -9.72205383e+02, -3.37072070e+03, -1.14168970e+03,
       -3.49472803e+03, -2.07100952e+03, -1.76205225e+03, 1.33150269e+03,
       -9.74850586e+02, 2.21283813e+03, 2.61964014e+03, 1.91419507e+03,
       2.24468164e+03, 1.59900391e+03, 3.14439282e+03, -8.63563232e+01,
       -9.72948425e+02, -1.85458252e+03, -2.00465564e+03,
       -1.53678516e+03, -1.80563940e+03, -1.40833679e+03,
       -2.07023926e+03, 2.60700342e+03, 2.68770312e+03, 2.56620288e+03,
       2.44801709e+03, 1.82045068e+03, 3.52825073e+03, 2.36653784e+03,
       1.33572729e+03, 1.49403418e+03, 1.10484814e+03, -3.53542786e+01,
       4.02186554e+02, 2.32503271e+03, -3.54976349e+01, 2.46301904e+03,
       2.16175757e+03, 3.27946021e+03, 1.69253687e+03, 1.55876282e+03,
       2.66595972e+03, 1.89401050e+03, -2.61670801e+03, -2.93178418e+03,
       -3.98892871e+03, -3.08052197e+03, -3.60150708e+03,
       -2.02296692e+03, -3.23232812e+03, 2.46367896e+03, 1.20001123e+03,
       7.50688171e+02, 6.87657532e+02, 1.85218420e+03, 2.89222217e+03,
       7.66395203e+02, 3.88037744e+03, 5.46868018e+03, 4.62833398e+03,
       6.23706348e+03, 4.58572168e+03, 4.67519775e+03, 1.08298364e+03,
       -3.38183691e+03, -1.76266260e+03, 1.72699121e+03, -2.58641187e+03,
       7.34732849e+02, 1.15314526e+03, -5.66744238e+03, -5.64167297e+02,
       -4.88039490e+02, -7.68128723e+02, -7.00934387e+02,
       -1.32548450e+03, 2.02179688e+02, -3.81214624e+03, -1.67209302e+03,
       1.95569336e+03, -1.18264844e+03, -1.20182007e+03, -6.44616821e+02,
       -2.10469971e+03, -3.88300830e+03, 5.14033301e+03, 2.30132178e+03,
       3.94016089e+03, 9.93340637e+02, 1.28647424e+03, 4.88672021e+03,
       2.88329980e+03, 4.14771454e+02, 1.36713428e+03, 1.14017017e+03,
       5.68638489e+02, 4.36558411e+02, 2.98516602e+02, 1.14450500e+03,
       4.45104883e+03, 2.03960242e+03, -1.07555115e+03, 3.72640674e+03,
       2.00716187e+02, 6.87654834e+03, -3.47888281e+03, -5.47097473e+02,
       -3.83562305e+03, -1.26088342e+03, -4.63101416e+03,
       -4.01166992e+03, -2.19884961e+03, -1.57735754e+03,
       -2.30272412e+03, -1.98316309e+03, -4.80678223e+03,
       -4.31578076e+03, -6.25067969e+03, 1.90813934e+02, -6.27184473e+03,
       7.81534973e+02, -8.07738892e+02, -1.48144104e+03, -2.54036133e+02,
       -6.21869507e+02, -8.43055908e+02, -2.85137085e+03, 1.52095898e+03,
       6.58796539e+01, 7.11132324e+02, -6.40767456e+02, 6.13990417e+02,
       1.89982202e+03, -7.34645569e+02, 2.53097321e+02, 2.38243469e+02,
       -1.20282849e+03, -3.96996875e+03, -2.92939014e+03,
       -1.90924347e+02, -3.50568188e+03, 9.27900574e+02, 2.13294678e+02,
       3.39304980e+03, -5.12451477e+02, 9.62511047e+02, 1.82336145e+03,
       -1.23510010e+02, 2.97249603e+02, 1.05932349e+03, -7.89572388e+02,
       -2.50754211e+02, -2.75116577e+02, 4.25954407e+02, -6.02668274e+02,
       1.30543921e+03, 1.55205334e+03, 1.76544983e+03, 7.60041809e+02,
       -2.85140442e+02, 2.30601025e+03, -3.27503235e+02, -1.38632507e+03,
       -1.60624963e+03, -1.52888672e+03, -2.08117188e+03,
       -2.24539673e+03, -7.75384644e+02, -1.49288281e+03,
       -2.67017517e+02, -5.08240509e+02, -8.65345825e+02,
       -6.04389587e+02, 4.41164322e+01, -4.01848846e+02, 7.03700317e+02,
       3.46723682e+03, 1.49333984e+03, -2.58570282e+02, -4.87635925e+02,
       1.45548242e+03, -9.93985352e+02, 2.33474707e+03, -4.46787988e+03,
       -3.93269092e+03, -5.32004541e+03, -5.31824072e+03,
       -5.27683105e+03, -5.01715918e+03, -4.75299707e+03, 9.22647705e+02,
       1.09353931e+03, 7.14733887e+02, 1.28087573e+03, 1.17485132e+03,
       6.96598450e+02, 6.69646729e+02, 3.20279761e+03, 3.29437280e+03,
       2.72725732e+03, 2.44547412e+03, 2.92197070e+03, 3.79995483e+03,
       3.10489160e+03, -3.15516907e+02, -9.74334656e+02, 3.31879852e+02,
       2.02691772e+03, 1.31796533e+03, 2.23145288e+03, 2.30726758e+03,
       3.28530713e+03, -7.55522888e+02, 3.17504932e+03, 1.23629639e+02,
       -9.52038269e+02, -1.77672046e+03, -1.34758582e+03,
       -1.34481018e+03, -9.54407715e+02, -7.39423462e+02, 6.21891113e+02,
       -2.36451874e+02, -5.83639404e+02, 1.15432532e+03, 4.26587708e+02,
       -6.09322510e+02, -4.29885712e+02, -7.21805359e+02,
       -8.55963989e+02, 8.51252365e+01, 1.84869461e+02, 6.93266541e+02,
       -8.64418396e+02, -5.98763000e+02, 4.59928818e+01, -1.19932587e+02,
       -7.76390808e+02, -8.12860596e+02, 1.21851624e+03, 2.25987256e+03,
       7.88600525e+02, 2.48536450e+03, 2.63958398e+03, 2.28305005e+03,
       2.55795679e+03, 2.93615869e+03, 3.22736182e+03, 3.62583594e+03,
       3.02952295e+03, 2.75928271e+03, 3.69480322e+03, 3.10257520e+03,
       4.79100800e+02, -4.39085938e+02, 1.14627998e+02, -7.49720154e+01,
       -7.63153763e+01, 7.86338577e+01, -4.23323822e+01, -4.96341504e+03,
       -2.05478418e+03, -2.77880371e+03, -2.39748438e+03,
       -6.79643115e+03, -6.33121094e+03, -1.52680542e+03, 7.17118042e+02,
       8.68752930e+02, 2.27028149e+03, 2.84509668e+03, 1.17472168e+03,
       1.35980176e+03, -3.69773193e+02, -3.10114526e+03, -2.93344482e+03,
       -2.82701880e+03, -2.50996729e+03, -3.76275635e+03,
       -1.86294336e+03, -3.24067847e+03, 3.85825745e+02, 9.05535828e+02,
       2.88814185e+03, 3.40626807e+03, 7.74972046e+02, 3.24608838e+03,
       -5.82489319e+02, -3.23127344e+03, -1.19895532e+03,
       -2.85511890e+03, -2.91492480e+03, -2.57484912e+03,
       -3.18817114e+03, -3.74527686e+03, -2.61363647e+03,
       -2.81965747e+03, -2.61302368e+03, -2.71803174e+03,
       -2.62523926e+03, -2.46545630e+03, -2.90355176e+03, 1.33611438e+03,
       2.17194531e+03, 2.28939185e+03, 1.28758057e+03, 1.87529907e+03,
       1.56655127e+03, 6.52268311e+02, 2.01590637e+03, 4.48408020e+02,
       -2.38183252e+03, -1.29735321e+02, -2.38687671e+03, 2.84881653e+02,
       -3.87418921e+03, -2.76218115e+03, 1.08597420e+02, -2.54172925e+03,
       4.34668549e+02, 3.83333923e+02, 6.63208694e+01, -1.01284967e+03,
       3.06712256e+03, 4.85684619e+03, 5.57818164e+03, 4.26319434e+03,
       4.99887109e+03, 4.48293555e+03, 4.35998047e+03, 7.76575745e+02,
       1.81828467e+03, 2.03805298e+03, 1.96859033e+03, 1.95998535e+03,
       6.07783020e+02, 9.13747131e+02, 1.15222717e+03, 1.38424475e+03,
       2.24313965e+03, -2.54387256e+03, -3.37093201e+01, 3.36830225e+03,
       -1.08311084e+03, -1.64265930e+03, -3.41089325e+02,
       -2.61105664e+03, -2.68875946e+02, -3.41191376e+02,
       -8.26381958e+02, -9.24739380e+02, 8.31134277e+02, 3.77864685e+02,
       6.90366150e+02, 1.19665070e+02, -5.25499207e+02, 6.93129150e+02,
       -6.35054382e+02, -2.96183301e+03, -1.11919751e+03,
       -1.93321240e+03, -2.20761157e+03, -2.01431519e+03,
       -1.90667053e+03, -2.30268945e+03, 1.02984875e+03, 1.85778467e+03,
       3.00661475e+03, 2.12349707e+03, 1.84473767e+03, 1.74393359e+03,
       1.04904041e+03, -1.05364697e+03, -9.35483582e+02, -4.44463928e+02,
       -1.34476489e+03, -6.70698364e+02, -5.12512817e+02, 1.34570166e+03,
       1.94680652e+03, 1.72221704e+03, 7.85262390e+02, 1.89761365e+03,
       1.02631836e+03, 4.05816986e+02, 3.47486865e+03, -4.04849634e+03,
       -2.39386304e+03, -2.22492188e+03, -2.84188281e+03,
       -2.04357336e+03, 3.09024750e+02, 9.75283081e+02, -1.83924683e+03,
       -2.53754102e+03, -3.10274194e+03, -3.01177124e+03,
       -2.06988525e+03, -2.25006909e+03, -2.44682007e+03, 4.63680969e+02,
       5.92281006e+02, 4.89000458e+02, 4.45761505e+02, 5.20367004e+02,
       -7.37638550e+01, 7.86650635e+02, 1.10693199e+02, 1.47409348e+02,
       -3.16310028e+02, -4.92408295e+01, 6.63255432e+02, -1.02044571e+02,
       2.61148865e+02, 2.42859082e+03, 1.83893201e+03, 7.94234863e+02,
       2.12815842e+02, 5.49942810e+02, -6.14697815e+02, 3.18250854e+03,
       -4.95703760e+03, -1.97627670e+02, -4.68264844e+03, 3.86514862e+02,
       -1.51654761e+03, 2.35567291e+02, -1.45571167e+03, 2.78045135e+02,
       2.40997778e+03, 1.78487842e+03, -8.81545227e+02, -3.39037842e+02,
       1.68577246e+03, 1.47831982e+03, 1.45755212e+03, 4.82656647e+02,
       6.23574402e+02, 5.06063324e+02, 5.81445801e+02, 2.44831323e+03,
       8.01192139e+02, -1.37820081e+03, -1.86541943e+03, -1.85167749e+03,
       2.55561963e+03, 2.44093408e+03, -1.04223108e+03, 2.37408276e+03,
       -3.74707373e+03, -2.94166382e+02, -2.15963818e+03,
       -2.63962573e+03, -3.04195679e+03, -1.24776160e+03,
       -2.81387500e+03, 1.29060913e+02, -2.43981918e+02, -3.93896149e+02,
       -2.73756012e+02, 5.28617737e+02, 2.50379086e+00, -5.13809814e+02,
       1.82893335e+03, 2.50204224e+03, 2.61363623e+03, 2.10906641e+03,
       2.89462939e+03, 3.26074268e+03, 3.44725562e+03, 3.00886444e+02,
       9.80368896e+02, 5.98981323e+02, 1.03133044e+03, 7.88175110e+02,
       3.92634583e+02, 1.15010083e+03, 1.76581006e+03, 1.90334790e+03,
       1.60276660e+03, 1.91272864e+03, 1.57147888e+03, 1.20716211e+03,
       8.74750977e+02, 3.84435547e+03, 4.40925830e+03, 3.78455176e+03,
       4.11277002e+03, 2.82479321e+03, 3.90257959e+03, 2.35932910e+03,
       -1.97299060e+03, -2.03702625e+03, 2.87814728e+02, 3.10491852e+02,
       -2.17363989e+03, -3.70898285e+02, -2.72641187e+03,
       -1.23424194e+03, 1.14686975e+03, 5.34007812e+02, 3.26559265e+02,
       -3.92240295e+02, -1.60034644e+03, -5.81724243e+02,
       -4.09929840e+02, -7.87442505e+02, -8.06852783e+02,
       -6.64548035e+02, -7.99240784e+02, -1.60620926e+02,
       -8.61133545e+02, -7.61012329e+02, -1.27786890e+03,
       -7.98443542e+02, -8.10343018e+02, -1.64031116e+03,
       -9.83900574e+02, -4.58553925e+02, 7.46063538e+02, 1.95628540e+03,
       -1.14552332e+03, -1.75520837e+03, -1.79058447e+03,
       -1.53648071e+03, -1.73374561e+03, -3.19678540e+03,
       -1.33215100e+03, -3.02336646e+03, -2.74451050e+03,
       -1.88922256e+02, -2.25129517e+03, 5.40694763e+02, 2.75532568e+03,
       -7.08070068e+02, -1.20698196e+02, 3.32092090e+03, 2.79410376e+03,
       -7.80471706e+00, -1.60381750e+03, 2.98019897e+02, 1.27245605e+02,
       2.98975525e+02, 3.17911224e+02, 1.63177780e+02, -1.37927783e+03,
       1.97139343e+02, 6.03837036e+02, 9.07248779e+02, 7.94720276e+02,
       -5.89595581e+02, 4.57340469e+01, -2.92388794e+03, 4.28858337e+02,
       1.05135388e+03, -6.74028015e+02, -5.33006897e+02, 1.64821899e+03,
       2.17162671e+03, -1.49915436e+02, 2.09876367e+03, 2.07101489e+03,
       2.08453735e+03, 1.47430151e+03, 2.21885864e+03, 1.01217065e+03,
       1.68362048e+03, 2.38651099e+03, -7.58962158e+02, -8.10353882e+02,
       -5.82505432e+02, -3.21213013e+02, -1.44961804e+03,
       -2.67394165e+03, -2.67045874e+03, -8.74464294e+02,
       -2.49271704e+03, -1.43902954e+03, -2.11407593e+03,
       -1.25435132e+03, -1.67708618e+03, -2.06149878e+03,
       -4.37556000e+02, -4.60143433e+02, -7.57320404e+01,
       -2.79903107e+02, -2.84735909e+01, -1.63146423e+02,
       -2.14563672e+03, -1.46071509e+03, -6.85709106e+02, 4.23385071e+02,
       -5.33815796e+02, 8.94743530e+02, 3.34433098e+01, -1.81395813e+03,
       6.86652954e+02, 1.18457190e+03, 1.39735400e+03, 2.06020117e+03,
       9.53397156e+02, 1.87348022e+03, -1.88016211e+03, -1.34983154e+03,
       -6.93846436e+02, -6.25705933e+02, -6.28172485e+02,
       -7.67366516e+02, -1.81185242e+02, -3.22282654e+02,
       -7.81972046e+02, -8.69262634e+02, -7.02509216e+02,
       -5.41460693e+02, -4.84505249e+02, -8.71026978e+02,
       -8.44900940e+02, -2.66874854e+03, -3.16433057e+03,
       -2.91237842e+03, -2.48410742e+03, -3.13536523e+03,
       -2.67012500e+03, -3.77571387e+03, 1.01276587e+03, 6.41099854e+02,
       2.05176416e+03, 2.59266113e+03, 2.02156311e+03, 1.86543298e+03,
       -2.26178207e+02, 6.49800415e+02, -2.72929785e+03, 2.85359283e+02,
       -3.07750806e+03, -2.77818872e+03, -1.07311719e+03,
       -1.64664990e+03, -1.21042773e+03, 1.50955823e+03, 1.25105688e+03,
       -6.74273682e+01, -3.62087616e+02, 2.53087158e+03, -6.70959351e+02,
       -1.62094910e+02, 1.91445093e+03, 2.42456934e+03, 1.51497241e+03,
       2.01335791e+03, 1.53027588e+03, 1.94725452e+03, -8.71869736e+01,
       -1.26860329e+02, -3.30020142e+01, 2.08909106e+03, 1.34900415e+03,
       -4.29069977e+02, 1.17969800e+03, 1.46295642e+03, 2.40779761e+03,
       7.28969910e+02, 2.66826733e+03, 3.09406177e+03, 3.65854541e+03,
       2.48130469e+03, -9.27151672e+02, -1.38774060e+03, -3.47233643e+02,
       -1.42073730e+03, -1.08492932e+03, -7.69894531e+02,
       -1.67581726e+03, 8.69527039e+02, 1.64871802e+03, 1.01894385e+03,
       1.76430444e+03, 1.29027075e+03, 1.78906824e+03, 8.08611572e+02,
       -2.15409814e+03, -5.13926453e+02, -7.42216553e+02,
       -3.05171631e+02, -2.81454773e+02, 3.39276672e+02, -1.18227734e+03,
       5.26324707e+02, 4.64248230e+02, 2.85376263e+01, 6.18317871e+02,
       3.75296021e+02, 8.11874695e+02, 1.13719470e+03, -1.36300281e+03,
       -2.27404443e+03, -2.59190918e+03, -1.80780273e+03,
       -2.01964709e+03, -1.79719055e+03, 1.52993884e+03, -1.78155566e+03,
       -1.68107410e+03, -1.12435645e+03, -1.05058350e+03,
       -1.01172485e+03, -4.28400146e+02, 2.66910352e+03, -5.47261169e+02,
       1.37958420e+02, 6.79219971e+02, 4.86899719e+02, -5.04650513e+02,
       2.27079407e+02, 2.30767993e+03, 1.66997986e+03, 1.08483740e+03,
       1.46917285e+03, 1.33676196e+03, 1.41620300e+03, 1.05670801e+03,
       1.35798608e+03, 2.83524971e+01, -2.43920850e+03, -1.01028326e+03,
       3.95188141e+01, -3.19682202e+03, -1.28091040e+03, -5.71629822e+02,
       4.06786072e+02, -3.11536682e+02, -3.94402222e+02, -3.41569336e+02,
       -4.29196350e+02, 4.92673767e+02, 2.66246216e+03, -1.07946114e+02,
       -6.89410034e+02, 2.87406921e+01, 1.44732227e+03, -2.72142395e+02,
       4.53764458e+01, -1.09036499e+03, -1.04980444e+03, -1.29373682e+03,
       -7.76514160e+02, -3.88217041e+02, -3.14791382e+02,
       -1.69145789e+03, 1.45597900e+03, 4.37740051e+02, 3.84836646e+03,
       4.12180371e+03, 3.39387891e+03, 4.13777881e+03, -4.07918121e+02,
       4.18726123e+03, 1.34798325e+02, -2.08165146e+02, 4.12682037e+01,
       1.33705176e+03, 8.76451294e+02, -8.30166504e+02, 1.42623767e+03,
       6.08280334e+01, 6.71407654e+02, -1.24356274e+03, -9.57395081e+02,
       -6.92111389e+02, -4.39844208e+02, -9.37245911e+02, 7.35590942e+02,
       1.05812439e+03, 8.02730042e+02, 1.29922913e+03, 1.57102600e+03,
       1.68576465e+03, 1.85322217e+03, -2.60104150e+03, -2.92733521e+03,
       -1.94898328e+03, -2.02020422e+03, -2.45966675e+03,
       -1.52006958e+03, -1.62449377e+03, -3.44218536e+02,
       -1.68370300e+03, -1.01565802e+03, -9.05426758e+02, 3.86410522e+02,
       -9.06594543e+01, 4.25503174e+02, -1.05230994e+03, -1.48096680e+03,
       -1.05956616e+03, -1.36903430e+03, -1.13296619e+03,
       -8.45217957e+02, -8.47627625e+02, -6.83957291e+01,
       -7.08306198e+01, -5.69046082e+02, -1.60921341e+02, 2.61740997e+02,
       1.37574173e+02, -8.56325623e+02, -7.90013733e+01, -1.83823669e+02,
       6.48556580e+02, 4.26542091e+01, -4.78934174e+02, 2.08430444e+03,
       -1.60481396e+03, -1.72681836e+03, -1.09464746e+03,
       -1.53510681e+03, -1.59478955e+03, -2.01038281e+03,
       -1.83107593e+03, -2.31307080e+03, -3.12988525e+02, 3.16606232e+02,
       1.08007298e+01, 4.20763580e+02, 4.02566620e+02, -4.25081787e+02,
       -1.44106735e+02, -1.99134961e+03, -8.30386353e+02,
       -1.03867334e+03, -1.49279614e+03, -6.75862610e+02,
       -1.58098206e+03, -1.70329431e+03, -8.29479492e+02,
       -5.66782410e+02, -2.34699438e+03, -2.22882935e+03,
       -1.76677942e+03, -2.18268774e+03, -2.58473364e+03, 2.76611816e+02,
       3.42953198e+03, 4.44026001e+02, 1.76961975e+03, 3.93858789e+03,
       2.64375879e+03, 3.45016260e+03, -2.10775894e+02, -1.43611719e+03,
       -2.76826807e+03, -2.12481396e+03, -2.70966919e+03,
       -1.52932602e+02, -3.85087964e+03, 1.02508313e+03, 9.47971069e+02,
       6.23191162e+02, 8.11317078e+02, 7.40633179e+02, 6.97276794e+02,
       2.56094147e+02, 1.00662402e+03, 4.82312469e+02, 1.09740356e+03,
       6.22086060e+02, 1.10615271e+03, 4.87782288e+02, 1.44875574e+03,
       5.17248779e+02, 1.84628082e+02, 3.58047974e+02, 1.04482129e+03,
       1.15306799e+03, 4.28114288e+02, 6.05826233e+02, 1.73149805e+03,
       1.71511438e+03, 1.42779419e+03, 1.28009998e+03, 1.64202087e+03,
       2.30410522e+03, 8.40799316e+02, 7.30913757e+02, 7.62709412e+02,
       4.45026031e+02, 1.84328979e+02, 5.80201111e+02, -1.49506638e+02,
       -3.96220169e+01, 2.03893347e+03, 1.58618884e+03, 1.35696826e+03,
       1.34131116e+03, 2.06243481e+03, 1.71668433e+03, 4.40633423e+02,
       5.77365356e+02, 6.36921310e+01, 7.30731079e+02, -1.38819916e+02,
       3.82014709e+02, -1.38202866e+02, 9.80268005e+02, -9.29118774e+02,
       -1.48750964e+03, -2.48753320e+03, -1.26684937e+03,
       -1.80212585e+03, -1.68556555e+03, 2.40093414e+02, -2.80183716e+03,
       -2.76067578e+03, -2.35860010e+03, -1.95638940e+03,
       -2.40306885e+03, -2.94651123e+03, -8.28054138e+02,
       -5.01824829e+02, 8.72115417e+02, 5.40159607e+02, 4.72603851e+02,
       -1.10652489e+02, -4.17136597e+02, 5.79944153e+02, -1.04294312e+02,
       -4.88642502e+01, -6.70678787e+01, 2.16292694e+02, 1.41147949e+02,
       -2.54307419e+02, -1.67795929e+02, -9.50295944e+01,
       -1.00469580e+03, -7.16315796e+02, -5.93628540e+02, 3.62323578e+02,
       2.71376343e+02, -1.94013641e+02, -5.72566589e+02, -1.40393860e+02,
       -2.96777283e+02, 3.90360107e+01, -7.10945190e+02, 1.32886414e+03,
       -1.10773254e+03, 3.58020068e+03, -4.04738708e+02, 4.12997607e+03,
       -1.33944312e+03, 5.86497498e+02, -1.85853577e+03, 2.95258667e+02,
       2.14353052e+03, 9.53428589e+02, 4.57281677e+02, 3.01303198e+03,
       1.54048608e+03, 2.05887256e+03, -2.22268945e+03, -9.97182251e+02,
       -3.75268250e+02, -4.38706284e+01, -6.45560181e+02,
       -5.44379639e+02, -6.82773972e+01, 1.02291156e+03, 7.44937561e+02,
       1.07022815e+03, 8.30228455e+02, 4.67410461e+02, 5.63803833e+02,
       -2.93159814e+03, 7.49694214e+02, -5.46574341e+02, -1.86778467e+03,
       -5.16346680e+02, 5.12539307e+02, 2.47406433e+02, -1.13076233e+03,
       7.26054382e+02, 1.32868103e+03, 8.85479187e+02, 5.62764954e+02,
       6.19745544e+02, -2.02070288e+03, 2.35905914e+02, 1.05474915e+02,
       1.46754346e+03, 1.06736792e+03, 2.44147388e+03, 1.80561047e+03,
       1.77715198e+03, -6.10513550e+02, 8.41882996e+02, -5.68574585e+02,
       1.77318933e+03, 2.05855908e+03, 1.77055261e+03, -8.46317017e+02,
       -1.48728796e+03, 1.88811023e+03, -4.15224792e+02, -4.93489258e+02,
       -8.77883850e+02, -6.77406982e+02, 4.73833733e+01, -2.30981055e+03,
       1.89782227e+03, -3.33391815e+02, -3.56771881e+02, -5.41025024e+02,
       -4.83655487e+02, -6.88576660e+02, -5.59517883e+02, 3.14562988e+02,
       1.45877563e+03, 2.11040381e+03, 2.26420703e+03, 2.38978101e+03,
       2.12722559e+03, 1.47354871e+03, 2.27883496e+03, 5.76858032e+02,
       9.05611206e+02, 1.74853592e+02, 2.00612625e+02, 6.43879883e+02,
       -2.43978378e+02, -1.22194061e+02, 2.11766284e+03, 2.41387939e+02,
       1.39841101e+03, -1.56884232e+02, 2.17459488e+01, 1.57099304e+03,
       8.84936157e+02, 1.23461499e+03, -1.60145569e+02, -3.03440247e+02,
       2.41708099e+02, 9.70590286e+01, -2.19635345e+02, 7.84524536e+02,
       2.15535889e+03, 1.29092786e+03, -1.03904382e+03, -1.28358508e+03,
       -1.13158838e+03, 6.13509750e+00, -2.66011865e+03, 3.69863129e+02,
       5.38803589e+02, 7.62600098e+02, -1.01656146e+03, 4.24744537e+02,
       9.68748230e+02, 8.49955627e+02, 1.35027441e+03, 2.13328735e+03,
       8.20298035e+02, -7.23245361e+02, -4.58627319e+02, 2.95696289e+03,
       -1.44861414e+03, -1.02025841e+02, -3.57022827e+02,
       -7.68435669e+02, -8.05733337e+02, -7.19071655e+02,
       -8.60489380e+02, -2.09431168e+02, 3.11864548e+01, -8.04143860e+02,
       -1.50148755e+03, 3.12352051e+03, 2.22666724e+03, -4.87350586e+03,
       2.73647461e+03, -1.16147107e+03, -5.33843262e+02, -9.61533630e+02,
       -6.40700928e+02, -7.78826965e+02, -1.09208508e+03,
       -8.92628906e+02, 6.33456459e+01, -1.94403717e+02, 1.32947708e+02,
       -3.43562775e+02, -1.61180103e+03, 1.61368423e+02, -1.32031580e+03,
       7.00032883e+01, -4.76689667e+02, -2.25601517e+02, -6.26532227e+02,
       -3.55959290e+02, -1.18757263e+03, -3.67842041e+02, 4.74135559e+02,
       -2.00728503e+03, -1.47272876e+03, -2.39331079e+03,
       -1.61323334e+02, -4.58170868e+02, -2.13506201e+03, 6.07421074e+01,
       8.58657043e+02, -5.30447388e+02, -1.50505875e+02, 5.58045898e+02,
       -8.64428711e+02, -1.15156592e+03, 1.98055371e+03, 1.70940710e+03,
       1.17270581e+03, 1.87273669e+03, 2.27967957e+02, 1.12053650e+03,
       1.89454746e+01, -6.15201233e+02, 5.70342957e+02, 4.89065590e+01,
       -5.49284668e+02, 3.32728302e+02, -1.29252600e+03, -2.62966357e+03,
       4.72016693e+02, -1.51213098e+03, -7.97685974e+02, -9.57985229e+02,
       2.62369156e+01, -2.54946838e+02, 5.56311890e+02, 4.53727570e+02,
       -2.15521210e+02, 1.70512756e+02, -2.65764221e+02, -1.48664520e+02,
       -2.48499847e+02, -6.78648233e+00, 2.97953857e+02, -8.20062012e+02,
       -2.19650238e+02, 5.69308350e+02, -1.66785522e+03, -1.54595129e+03,
       -9.97354187e+02, 1.79940186e+03, 1.02828894e+03, 1.23101331e+03,
       9.76540649e+02, 7.66910095e+02, 1.47325903e+03, -5.49673767e+02,
       2.54046460e+03, 2.42276929e+03, 2.69311206e+03, 2.84577002e+03,
       1.67853455e+03, 1.55670081e+03, 5.06976700e+01, -1.87340103e+02,
       1.98954590e+03, 8.04225403e+02, -1.73323624e+02, -6.73850586e+02,
       1.61464307e+03, -1.14801147e+03, -3.03423431e+02, 1.89986316e+03,
       8.90712891e+02, 6.17430298e+02, 1.35718066e+03, -1.37654944e+03,
       -4.27633728e+02, 1.51973853e+03, 1.99810486e+03, 2.18059131e+03,
       -1.80048413e+03, -6.58513123e+02, 2.06947168e+03, -7.89687439e+02,
       -2.36836426e+03, 4.10580841e+02, -1.38830444e+03, -1.85198828e+03,
       -2.24222070e+03, -8.98577881e+02, -1.96950403e+03,
       -6.87599426e+02, -5.19106506e+02, -9.93271667e+02,
       -2.20319382e+02, -3.15206665e+02, -6.92411072e+02,
       -9.03137756e+02, -4.29522705e+02, -2.08051025e+02,
       -6.98610962e+02, -5.23718628e+02, -4.14823578e+02, 1.14214005e+02,
       3.21984619e+02, -1.04039526e+03, -1.10865320e+03, -3.05285645e+02,
       -9.82774231e+02, -2.52725195e+03, -2.19446289e+03,
       -9.15559265e+02, 9.68133606e+02, 1.15094812e+03, 7.71234253e+02,
       1.59465759e+03, 1.01375323e+03, 1.57397791e+03, -1.06261169e+03,
       -1.07705078e+03, -5.45233459e+02, 1.57147913e+03, -1.03965479e+03,
       8.15438965e+02, 1.13530774e+03, -6.95302063e+02, 1.72274744e+03,
       -1.46478064e+03, -3.53226685e+03, -3.57429272e+03,
       -1.53966223e+03, -4.55235413e+02, 8.57675247e+01, 7.67326538e+02,
       9.82380310e+02, -6.99617859e+02, -4.54673889e+02, 6.08216919e+02,
       2.12939056e+02, -1.56954700e+03, -3.68658325e+02, -1.95654541e+03,
       -1.22272156e+03, -2.12214185e+03, -1.94097766e+03,
       -2.91452789e+01, -1.69263733e+03, -5.26764954e+02, 8.41726379e+01,
       -3.25160736e+02, -6.67409119e+02, -1.10045624e+01,
       -4.18971954e+02, -6.96825745e+02, 1.07246277e+03, -1.63534204e+03,
       -1.29824634e+03, 6.37625488e+02, 1.59095947e+02, 1.74782678e+03,
       1.06775696e+03, 2.28046704e+03, 1.29656689e+03, 1.44045532e+03,
       1.58333252e+03, 1.48421313e+03, 1.82457239e+03, 1.91060669e+03,
       1.68208572e+02, -1.19730530e+02, 1.28332275e+03, -6.41903442e+02,
       1.46850647e+03, 6.25280090e+02, 2.58575073e+03, 8.62508850e+02,
       -9.29589600e+02, -6.34897400e+02, -3.23591705e+02,
       -5.05823914e+02, 5.35406982e+02, -7.79969421e+02, -1.08779626e+03,
       -1.29325098e+03, -1.71256824e+03, 2.30843066e+03, 1.59044739e+03,
       -5.78211365e+02, 1.66507776e+03, 6.94219437e+01, -1.18202789e+02,
       -3.03441193e+02, 2.83644958e+02, 2.83669464e+02, 8.00589844e+02,
       -3.00896057e+02, -3.41902252e+02, -7.21804321e+02, 7.11299438e+02,
       -8.47760010e+02, 1.86973352e+03, 6.80640625e+02, -1.19408783e+02,
       3.46435486e+02, 3.98217865e+02, -5.03508698e+02, -2.57859741e+02,
       -4.47420532e+02, -2.10696976e+02, -7.62127075e+02, 3.69932648e+02,
       -1.03035706e+03, -2.10138062e+03, -1.58937817e+03, 7.72270752e+02,
       1.25221301e+03, -1.60850964e+03, -2.69836700e+02, -6.55989868e+02,
       -3.27215027e+02, -7.27771240e+02, -4.69970306e+02, 3.44097198e+02,
       -9.14403687e+02, 1.57403943e+03, 5.68534119e+02, -4.45744141e+02,
       1.47071277e+03, -9.44158997e+02, 5.33861755e+02, -1.86852844e+02,
       4.35758789e+03, 9.65196167e+02, -1.64714746e+03, -2.39019824e+03,
       1.18992590e+03, -6.03529785e+02, 1.46468518e+03, -4.03526794e+02,
       2.71372772e+02, 6.68654541e+02, 6.19134827e+02, -2.05954086e+02,
       1.24450607e+01, 4.71709412e+02, 1.01706958e+03, 1.92875671e+01,
       7.51393677e+02, -4.91603203e+01, 3.14209423e+01, 6.76432617e+02,
       3.94733459e+02, -9.66316071e+01, -4.01933228e+02, -3.74606689e+02,
       -1.98754120e+02, 9.28675842e+01, -7.43980255e+01, -6.42686768e+02,
       -1.50860327e+03, -3.08750415e+03, -2.82519531e+03,
       -3.36440613e+02, -1.45429956e+03, -1.34051208e+03, 8.98332092e+02,
       3.78204407e+02, -1.36274426e+03, -2.56073059e+02, -1.70390967e+03,
       -8.35449158e+02, -1.56393018e+03, -2.04310120e+03, 2.30759204e+03,
       1.57754712e+03, 6.47550354e+02, 1.77237198e+02, 1.10854797e+01,
       2.64543140e+03, -2.65320776e+03, 7.93684326e+02, 2.05762787e+02,
       9.13395813e+02, 7.16751953e+02, 6.71666321e+02, 2.00002881e+03,
       6.14399780e+02, 7.31822266e+02, 5.54013000e+02, 1.17662659e+03,
       -8.71425293e+02, -1.30698462e+03, 1.07280554e+03, -8.98812317e+02,
       1.37693558e+01, -6.30697021e+02, -1.44646378e+01, -1.11232080e+03,
       -1.07372559e+03, 5.03672562e+01, -7.67460693e+02, -5.55666748e+02,
       -6.63587830e+02, 1.72127884e+02, -6.28842346e+02, 2.22533203e+03,
       5.64253418e+02, 5.22253723e+02, 6.36042419e+02, 6.30605698e-01,
       5.16874146e+02, 2.93119873e+02, 3.64284760e+02, 3.79850220e+02,
       -1.37103882e+02, 1.16738806e+03, -4.84122620e+02, -1.29781036e+02,
       -4.84910889e+02, -1.89280853e+02, 1.36814087e+03, -9.12911377e+02,
       -1.15200037e+03, -1.05277441e+03, -2.94870880e+02, 1.65789246e+03,
       -7.77829163e+02, -5.19775818e+02, -2.46842407e+03,
       -3.26852814e+02, -8.05503662e+02, 8.62143066e+02, -2.84789917e+02,
       1.36031018e+03, 7.38860107e+02, -6.33857117e+02, 6.22771240e+02,
       -1.53737137e+02, 1.32495081e+03, 1.14121191e+03, 6.92174438e+02,
       -5.33774414e+02, 4.59905457e+02, -2.84147766e+02, 2.09437866e+02,
       -4.63838921e+01, 1.28199585e+02, -2.93661804e+02, -3.60929688e+02,
       -1.11972412e+03, 1.34091223e+03, 8.65619354e+01, 1.08488684e+03,
       2.62748932e+02, 8.71669235e+01, 2.64016479e+03, 9.10444092e+02,
       -2.65055078e+03, 7.30122498e+02, 3.49303589e+02, -1.29896252e+03,
       5.65636963e+02, -6.51396362e+02, -7.56338745e+02, -7.89716553e+02,
       -9.54339294e+02, 7.67377869e+02, -1.58715286e+02, -4.51848511e+02,
       2.18242065e+02, 1.12624585e+03, -1.95667267e+01, -1.29060608e+02,
       8.27519226e+00, -4.83997726e+01, 9.62989380e+02, -7.77417236e+02,
       1.48915588e+03, 6.95428711e+02, -2.09827002e+03, 1.06731140e+02,
       2.17742871e+03, 1.95210010e+03, -1.67318103e+03, 8.74306396e+02,
       3.49838745e+03, -4.00697418e+02, 4.16705750e+02, 1.75744751e+03,
       9.61762451e+02, 1.45376697e+03, -1.20914661e+03, 1.56908496e+03,
       -6.66481262e+02, 8.30311829e+02, 9.66899414e+02, 9.35963196e+02,
       -5.21631897e+02, 5.58889618e+01, 5.69931030e+02, -2.05249683e+03,
       -5.05490875e+02, -1.42208325e+03, -1.24858203e+03,
       -4.10367767e+02, -1.44786023e+03, 1.10124207e+00, -5.68936951e+02,
       -7.46693970e+02, -9.68125153e+01, -1.94051550e+03,
       -1.69433862e+03, -5.79187195e+02, 6.64622620e+02, 3.98899750e+02,
       -4.62522400e+02, 7.76659607e+02, -1.49863007e+02, -1.92849686e+02,
       -1.26755713e+03, -4.00841431e+02, -2.71899292e+02, 7.73102417e+02,
       9.46335022e+02, -9.36354553e+02, -1.92463501e+03, 4.73682739e+02,
       3.46227661e+02, 5.92776733e+02, 3.14619385e+02, 7.99817017e+02,
       4.41455780e+02, -1.09055579e+03, -2.16078461e+02, 9.71768127e+02,
       7.43955383e+02, -6.93058960e+02, 7.74753052e+02, -1.38646960e+03,
       1.72380371e+02, -2.41686572e+03, 3.02729810e+03, 3.68426758e+02,
       -7.80739502e+02, -8.04954346e+02, -7.82408905e+01,
       -2.59108887e+03, -1.46040186e+03, 1.17867053e+03, -1.28114673e+03,
       -1.81938629e+02, -1.61744781e+02, 1.25119499e+02, 2.99414948e+02,
       4.05229034e+02, 1.35175354e+02, 9.31269302e+01, -4.33806229e+01,
       -3.19155426e+01, 4.30288696e+00, -1.21458728e+03, 1.88911331e+02,
       4.49695648e+02, -2.10093430e+02, 3.23271210e+02, 8.64826660e+02,
       -6.95386047e+02, -1.64393665e+03, 2.91288757e+02, -1.32991345e+03,
       -9.79773804e+02, 4.26088379e+02, 3.08315887e+01, 1.40122498e+02,
       -2.66345215e+00, -2.39390747e+03, -1.16030164e+03,
       -2.89204224e+02, -1.23935693e+03, 3.78092407e+02, -1.19571008e+03,
       7.84448730e+02, -4.42196747e+02, -5.44563538e+02, 1.27837877e+01,
       1.91850845e+02, -3.21806030e+02, -2.39111542e+02, -1.58906445e+03,
       2.58881763e+03, 3.58389313e+02, 4.31069336e+02, 1.58574295e+02,
       6.18161987e+02, 5.23567261e+02, -6.40404816e+01, -7.67002258e+02,
       2.02211316e+03, 9.90239639e+01, -9.54439621e+01, 2.99261963e+02,
       6.55256775e+02, -4.25448242e+03, 8.90669922e+02, -2.85089661e+02,
       2.12928687e+03, 2.50709000e+02, 9.26409302e+01, 1.18394836e+02,
       -7.90229492e+01, 4.88226700e+01, 4.72645569e+01, 7.10792358e+02,
       1.80056305e+02, 7.21955566e+02, -8.96613007e+01, 2.12613129e+02,
       3.57932007e+02, 4.60231689e+02, 3.11985626e+02, -3.53718811e+02,
       -8.27591736e+02, 1.97341461e+02, 9.06441956e+02, 1.12357056e+03,
       1.84598389e+03, 1.00294080e+03, 1.39789868e+03, 8.16772217e+02,
       -8.99993225e+02, -9.01690002e+02, 8.72625793e+02, -1.33290863e+02,
       1.45831589e+02, 1.01907996e+03, 1.25741431e+03, 2.48458344e+02,
       1.61364578e+02, -1.86993729e+02, 2.67038086e+02, 1.66043350e+02,
       2.69616455e+02, 4.40069763e+02, 1.32230212e+03, -7.02056946e+02,
       1.59137073e+03, -1.68479095e+02, 5.11050148e+01, -2.93809143e+02,
       -4.98430786e+01, 1.52824448e+02, -3.25324677e+02, 2.59831276e+01,
       9.66192688e+02, -2.81843719e+02, 3.16543854e+02, 4.78992950e+02,
       8.16914246e+02, 8.26775879e+02, -2.02112930e+02, -1.13009656e+03,
       -2.80322449e+02, -6.86281494e+02, 6.26325340e+01, 6.71704559e+01,
       -1.62926904e+03, -4.57161224e+02, 1.63589249e+02, 5.49542480e+02,
       1.99254059e+02, -3.78079010e+02, 5.15550537e+02, 6.80905090e+02,
       -3.67041901e+02, -1.86439294e+03, -1.51755005e+03, 2.41759766e+02,
       -3.23595093e+02, 6.09765358e+01, 8.22083984e+02, -1.48602368e+03,
       3.91144142e+01, 6.73802490e+02, -5.62543335e+01, 6.01819153e+02,
       -2.22302216e+02, 3.24004242e+02, -1.56145886e+03, 4.95475220e+02,
       1.07960803e+03, 1.47666260e+02, 2.95136902e+02, -9.65601196e+02,
       1.16473352e+03, -3.20386938e+03, 1.34160486e+03, -5.07256378e+02,
       3.65098343e+01, 7.79165222e+02, 9.23035965e+01, 1.99596509e+03,
       -3.53777740e+02, -2.17913525e+03, -1.80953552e+03,
       -1.60405933e+03, 1.34705042e+03, 7.35655762e+02, 1.10614209e+03,
       1.47235767e+03, 5.27447876e+02, 1.80245825e+03, 1.05402368e+03,
       -8.27918884e+02, -1.00504309e+03, 1.67671509e+03, -1.09720105e+03,
       1.39537195e+03, 1.24354370e+03, 2.78531281e+02, 1.46433789e+03,
       -2.54177637e+03, -5.65392334e+02, 8.37330444e+02, -1.66472034e+03,
       -8.02981567e+02, -1.72884424e+03, -1.65605444e+03,
       -1.27669421e+03, 7.58024170e+02, 6.64232483e+01, -1.29951990e+03,
       6.46770142e+02, 2.04808472e+02, 8.07915466e+02, -5.74034241e+02,
       -1.32459900e+03, 9.12397339e+02, 7.19029236e+01, 1.15114136e+03,
       5.22617371e+02, 2.51859695e+02, 6.93691956e+02, -2.33894623e+02,
       3.39596985e+02, 2.86636078e+02, 2.17808395e+02, -1.04301282e+03,
       7.29931641e+01, -1.53894702e+03, -1.48334082e+03, -2.41870422e+02,
       -3.39038025e+02, 1.33995422e+03, -1.58047986e+03, -1.54611108e+03,
       7.93463257e+02, -7.53335327e+02, 1.49438281e+03, -5.04919373e+02,
       4.94956848e+02, -4.53726624e+02, -3.76128387e+02, -2.58894653e+02,
       -5.68571472e+02, 1.54967407e+02, 4.99258759e+02, -2.45944382e+02,
       -1.62539154e+02, -9.78238953e+02, -1.18087659e+03, 3.34922211e+02,
       -4.25347168e+02, -1.82642126e+03, 1.66647559e+03, 2.89185303e+02,
       -8.70795532e+02, 6.09549255e+02, -5.17257690e+02, -2.13329239e+02,
       9.53154663e+02, 5.40078247e+02, 1.63347461e+03, 1.00396252e+03,
       1.87529797e+03, -9.08256104e+02, 2.38797485e+03, -8.64347534e+02,
       1.14070215e+03, -1.23348621e+03, -6.19313782e+02, 6.11671509e+02,
       -8.05568359e+02, 1.73640710e+03, 7.91146851e+02, 1.28400122e+03,
       -4.23511871e+02, -1.29450842e+03, -8.37911804e+02, 2.89784424e+02,
       -1.39251624e+03, 1.49295288e+03, 5.24902039e+02, -4.69068878e+02,
       1.89092102e+02, -2.86179596e+02, -2.95769119e+01, -5.92121826e+02,
       7.23768921e+02, 1.22651208e+03, 1.02951794e+03, -6.96264526e+02,
       -7.11997009e+02, -9.68321106e+02, -1.93516937e+02, 1.97936981e+02,
       1.01402307e+03, 4.95152588e+02, 7.64457214e+02, 6.78033325e+02,
       -5.03159790e+01, 1.24252136e+03, -1.06581421e+01, 1.01287366e+03,
       -1.15413147e+03, 8.79348022e+02, -2.25515527e+03, -1.01114661e+03,
       4.03130737e+02, -5.52928284e+02, 2.43452621e+02, -2.65673981e+02,
       -8.33706909e+02, -3.10786682e+02, -7.71955383e+02,
       -6.55979553e+02, 2.37453278e+02, 6.97637329e+02, -1.22555396e+03,
       -8.07314087e+02, 5.86016418e+02, 2.55298325e+02, 1.47696045e+02,
       -1.74510178e+02, 9.89977722e+02, -1.18174644e+02, 1.58278894e+03,
       -1.70081772e+02, 1.23337610e+03, -1.96072729e+03, -1.10238391e+03,
       -6.58093506e+02, -6.57888489e+02, -7.02556030e+02,
       -4.00917175e+02, 2.80326019e+02, -3.91114929e+02, 7.19712585e+02,
       -8.87225830e+02, 1.08973132e+03, 1.66370691e+03, -1.33366370e+03,
       -2.97525269e+02, -1.77779236e+03, 4.24200287e+01, -9.38321777e+02,
       1.63548218e+02, 1.30365829e+02, -1.09109879e+02, 7.47616577e+02,
       7.68040924e+01, -8.66267776e+01, 2.60115845e+02, 1.91578857e+02,
       2.78484985e+02, 3.20425995e+02, -1.46125244e+02, 1.44054199e+02,
       7.76187012e+02, 2.54907852e+02, 3.97554932e+02, 2.86971954e+02,
       3.91648590e+02, 1.04880701e+03, 5.86076233e+02, -1.36937476e+03,
       -1.35533524e+02, 9.80013367e+02, -2.60846039e+02, 4.61502106e+02,
       -1.26635596e+03, 2.91226245e+03, -7.86833557e+02, 1.02662915e+03,
       -6.76953308e+02, 5.29487305e+02, 1.27041504e+03, -9.67938690e+01,
       -5.04358154e+02, 3.17415375e+02, 1.22418689e+03, 1.63315170e+02,
       1.03347034e+03, -2.10360291e+02, 8.49495667e+02, -2.74116333e+03,
       -1.53846924e+03, 4.49932861e+02, -1.66533661e+02, -3.05730057e+01,
       9.03024673e+01, -1.42728369e+03, -1.11799243e+03, 1.02455176e+03,
       -4.75204681e+02, -2.58212616e+02, 1.32667480e+03, 6.72732239e+02,
       -2.17094800e+03, -2.48314018e+01, -2.44396973e+02, 5.48350601e+01,
       -5.96007812e+02, 1.54773499e+02, -2.19886837e+01, 1.07894608e+02,
       -6.44198685e+01, -1.18453259e+03, -3.77142456e+02,
       -1.55636707e+03, -1.61684586e+02, 2.63676074e+03, -3.08157501e+02,
       1.00359033e+03, -8.58950348e+01, 7.80829285e+02, -5.51052246e+02,
       -1.29269379e+02, -1.07187759e+02, 6.38675171e+02, -7.42099190e+00,
       -1.46387000e+03, 9.36720276e+01, -4.91593628e+02, 8.16057281e+01,
       7.77614380e+02, 3.06089020e+02, -1.03470940e+02, 8.84982422e+02,
       -1.08451746e+03, 7.04059998e+02, -5.55899658e+01, 1.34320786e+02,
       1.14650647e+03, 9.09845093e+02, 5.73911194e+02, -1.89082932e+02,
       -9.85340088e+02, 7.33941467e+02, -1.06680725e+03, -1.25319618e+02,
       -5.27604492e+02, 1.20128674e+03, 9.86678772e+02, -6.09825562e+02,
       -1.53946338e+03, 1.13543652e+03, 6.02299927e+02, -1.70836304e+03,
       -3.94700500e+02, -1.12555396e+03, -1.16453873e+02,
       -1.36156113e+02, 5.55943298e+02, 2.93038300e+02, 1.75305069e+02,
       -2.76060181e+02, 1.18397278e+02, 2.97090332e+02, 1.13233765e+03,
       1.05458813e+03, -8.88355942e+01, 4.92056396e+02, 2.26054947e+02,
       -1.01728668e+03, -7.68248962e+02, -6.99238342e+02, 9.43747192e+02,
       1.48784436e+03, -1.05296955e+01, -1.43652237e+02, 2.12677002e+01,
       1.50845410e+03, 1.19917468e+03, 2.39836328e+03, 1.14274414e+03,
       -1.13413806e+03, -9.14154236e+02, 4.67732025e+02, -1.33557532e+03,
       4.51133972e+02, 1.23197485e+03, 2.42374054e+02, 2.53007462e+02,
       6.51661926e+02, -1.32934631e+03, -4.75003967e+01, -2.11565582e+02,
       1.04682727e+03, -2.86712524e+02, -1.15518030e+03, -2.82561340e+02,
       -7.88939209e+02, 1.65487885e+02, 4.85747337e+00, -4.67328758e+01,
       1.09031055e+03, 1.29650171e+03, -2.05526733e+02, -1.45552075e+03,
       7.97119904e+01, 7.75747833e+01, 1.00214130e+03, 4.88709656e+02,
       8.09518738e+02, -1.19990283e+03, -2.50201099e+03, -3.61028320e+02,
       1.57524890e+03, 8.34770630e+02, -1.60433923e+03, 5.81451111e+02,
       -5.86827271e+02, -4.44995422e+02, -2.57648285e+02,
       -1.56489166e+02, 4.52236267e+02, -4.28751312e+02, -7.26196960e+02,
       -1.04294153e+03, -9.22202942e+02, 1.73051666e+02, -1.06545799e+02,
       -3.38790985e+02, -3.71426788e+02, -5.43500000e+02, 1.76470108e+02,
       -7.36648987e+02, 3.91949524e+02, 3.17820251e+02, -4.99397705e+02,
       -5.61089600e+02, -6.69387573e+02, -5.56023132e+02,
       -3.84096924e+02, 1.38700119e+02, -2.06510773e+02, 1.20522926e+02,
       -3.26862427e+02, -2.38851883e+02, -9.69849731e+02,
       -4.11167725e+02, 1.56846252e+03, -6.56490173e+02, 2.31362915e+03,
       -1.11253162e+03, -3.69940796e+02, -6.45369934e+02, 1.40617407e+03,
       -2.41777573e+02, -1.00654163e+03, 1.24407507e+03, -4.78419098e+02,
       -2.23270264e+03, 5.37209961e+02, 8.14242554e+01, -9.08627014e+01,
       -5.25093155e+01, 1.11048828e+03, 9.50919342e+01, -6.52402100e+02,
       5.79330139e+02, 6.24917068e+01, 5.48235229e+02, -1.15313358e+01,
       7.69125061e+01, 8.51453064e+02, 2.05781647e+02, 3.71763878e+01,
       3.22196503e+02, 2.15537201e+02, -2.34209198e+02, 8.27664490e+02,
       1.83243057e+02, 3.62813141e+02, -2.03466150e+03, -1.41231604e+03,
       -1.58747253e+01, -1.60045898e+03, 1.36929248e+03, -4.01548828e+02,
       -6.38207825e+02, 2.63959656e+02, -4.82073151e+02, -2.02396408e+02,
       2.30110950e+01, -2.29763107e+02, -1.12825830e+03, -6.21013428e+02,
       -6.93155289e+01, 1.10018848e+03, 7.49880493e+02, -1.80284399e+03,
       1.98492874e+02, 3.42911652e+02, 1.26885620e+03, -8.15632874e+02,
       9.65934326e+02, 8.59259888e+02, 4.06627411e+02, 6.99546509e+02,
       -1.31152344e+03, 6.68265503e+02, -8.29164612e+02, 3.64985046e+02,
       3.12009216e+02, -2.13239059e+02, 9.04668335e+02, 1.92136822e+01,
       -6.88235718e+02, -4.96745483e+02, -1.42145630e+02,
       -8.40969604e+02, -5.55301666e+01, -1.23833408e+01,
       -1.11068286e+03, -1.83565125e+02, 7.33290955e+02, 1.59324243e+03,
       -1.37608612e+02, 1.61082666e+03, -9.59743500e+01, -1.96150497e+02,
       2.68727539e+02, 5.66264038e+02, 5.84559753e+02, 6.43275696e+02,
       1.00726520e+03, 4.26135193e+02, -1.40725098e+03, -5.13684387e+02,
       -6.68725464e+02, 4.05834473e+02, -7.82347107e+02, -5.49316833e+02,
       1.94668188e+03, -1.61753281e+02, -4.61804657e+02, 4.03857391e+02,
       -4.01410370e+02, -3.18018829e+02, -1.12458984e+02,
       -1.16695572e+02, 1.24372559e+02, 9.21444153e+02, 4.34817383e+02,
       7.45298035e+02, -2.67533844e+02, 6.54455505e+02, -1.05429260e+03,
       1.62481042e+03, -1.51551880e+03, -1.47054712e+03, -2.24900742e+02,
       -3.79041443e+01, -4.34627991e+01, 4.19830322e-01, 1.94941016e+03,
       -1.71777124e+03, -4.92264008e+02, 5.02285461e+02, 2.37801392e+02,
       1.63883209e+02, -2.40199905e+02, -4.93443726e+02, 6.04865540e+02,
       1.40260193e+03, -9.45447815e+02, 2.58631897e+02, -1.12718860e+03,
       -9.77605164e+02, 1.07360132e+03, -1.77579193e+02, -4.64087677e+01,
       3.64700317e+02, -2.97870972e+02, -6.86623047e+02, 6.03421997e+02,
       9.56815186e+02, 7.71987000e+02, -6.60464966e+02, -1.12818909e+03,
       1.79726062e+03, -1.63973877e+03, 6.59774170e+02, -1.83134277e+03,
       7.77464600e+02, 1.05182764e+03, -1.23588306e+03, 1.56295532e+03,
       -9.48348755e+02, -1.19775525e+03, 1.60979834e+03, 7.33619324e+02,
       -8.19422607e+02, 3.48724426e+02, -1.54523697e+01, -2.29328918e+02,
       -6.25428040e+02, 1.02038696e+03, 6.52836914e+02, 6.12842102e+02,
       -8.68791931e+02, 3.97762299e+01, -3.76168396e+02, -6.04961121e+02,
       9.99487671e+02, 1.55346704e+03, 3.32086823e+02, -3.02595428e+02,
       -3.65810669e+02, -9.80014191e+01, -3.34223404e+01,
       -4.10642639e+02, -5.23731995e+01, -6.42554550e+01, 2.47640762e+02,
       -1.32527881e+03, -3.24805878e+02, -2.49614029e+01, 9.01158020e+02,
       -2.81250610e+02, 5.20354248e+02, 2.41103226e+02, -6.63228027e+02,
       4.11825928e+02, 7.90082031e+02, -4.20324707e+02, 1.29337418e+02,
       -7.41032776e+02, -4.53599976e+02, -7.02750732e+02,
       -5.53597900e+02, -9.66927795e+02, 7.44918823e+02, -9.75998993e+01,
       5.24689392e+02, -2.33376755e+02, 1.58738724e+02, 5.76535156e+02,
       -7.99401001e+02, -1.81282562e+02, 1.24477246e+03, -8.68084534e+02,
       1.00235223e+03, -6.36610901e+02, 5.00607483e+02, 2.97888428e+02,
       5.05833969e+01, -5.04781372e+02, 8.13424072e+02, 7.21997803e+02,
       -7.49261353e+02, 8.14108154e+02, -8.05513672e+02, 6.99971542e+01,
       -1.27602737e+02, -1.20560693e+03, 6.06619324e+02, -5.38848633e+02,
       7.10181580e+01, 7.12160645e+02, 2.23947681e+03, -1.22795886e+03,
       -1.54785388e+03, 8.29335022e+01, 7.22056396e+02, 5.80683960e+02,
       -9.68661133e+02, -2.07480377e+02, 1.32936072e+03, -2.26554443e+03,
       1.21225525e+03, -7.20361694e+02, 1.93474390e+03, 1.96833167e+03,
       -1.18660791e+03, 1.60248528e+01, 1.92093475e+02, 4.39685486e+02,
       2.37107132e+02, -3.89127014e+02, -7.36959076e+00, 1.38912010e+01,
       -3.36756287e+01, 3.64505997e+01, -1.34958582e+03, -1.83193741e+02,
       -3.72483368e+02, 2.58396912e+01, 1.73218103e+03, 6.03440002e+02,
       8.10280884e+02, 3.30847534e+02, 1.97364029e+02, -3.96050720e+02,
       4.02997223e+02, -8.12532654e+02, -3.68663452e+02, 5.81607544e+02,
       -6.78047791e+02, -4.66684723e+02, -1.11386365e+03, 2.04250443e+02,
       8.38417908e+02, 1.84933667e+03, 4.16369385e+02, -9.08201141e+01,
       -6.83051941e+02, -1.68161163e+02, -1.02937500e+02, 9.87896851e+02,
       -1.39395239e+03, 3.95451447e+02, 7.03853760e+02, 2.71177094e+02,
       -1.81158478e+02, 1.16920151e+02, -1.77678845e+03, 1.34158997e+02,
       9.35002197e+02, -4.10818542e+02, 8.80155640e+01, -9.03989624e+02,
       -3.45525879e+02, 2.26146210e+02, -1.36273901e+03, 3.40347900e+02,
       4.24380798e+01, -7.01082306e+01, 2.85952454e+01, -4.05209473e+02,
       7.12914795e+02, -5.57205017e+02, -1.59469238e+02, 6.76565918e+02,
       -1.73753540e+02, -3.39077698e+02, 8.94507370e+01, -3.82909637e+02,
       -4.44193359e+02, -1.00154364e+03, -1.21792496e+02,
       -6.51641357e+02, -4.74872437e+02, 6.20260437e+02, 1.14183301e+03,
       -2.36034988e+02, 9.58117218e+01, 1.46340561e+02, -9.94111252e+01,
       -1.15126862e+02, -2.48541321e+02, -1.13831970e+02, 9.08734619e+02,
       -9.77411682e+02, -4.29197723e+02, 8.90824585e+02, -9.59501282e+02,
       9.59967163e+02, -2.00932281e+02, 7.18390259e+02, 1.14538953e+03,
       -4.68110619e+01, -2.26376266e+02, -2.41350693e+02,
       -1.47684967e+02, 4.81827164e+00, -5.57202759e+02, -1.53957080e+03,
       1.40201889e+02, 4.61608124e+02, 2.49967499e+02, -9.31368591e+02,
       -1.52470764e+03, -1.90411484e+02, 1.29505432e+02, 2.56394592e+02,
       2.15570816e+02, -1.57754929e+02, -4.82000923e+01, -1.12158821e+02,
       2.46205063e+02, -5.38927078e+00, -2.41980011e+02, 1.62743332e+02,
       2.17890640e+02, -4.86273895e+02, -2.51667175e+02, 8.32818604e+02,
       -1.26583252e+03, 1.26654053e+02, 2.16607742e+02, 4.96656616e+02,
       1.13341748e+03, 4.20696655e+02, -5.31912231e+02, 1.85755707e+02,
       1.25026535e+02, -2.81833435e+02, 1.86612656e+02, -8.71322021e+02,
       2.71204492e+03, 8.10978775e+01, 5.48195801e+02, -7.19358459e+02,
       -5.58000244e+02, 2.28267896e+03, 9.55904053e+02, -8.44341370e+02,
       -6.27262878e+02, -3.82114014e+02, -2.32990936e+02, 8.56362686e+01,
       -5.12805786e+02, -2.50111145e+02, 6.48438477e+02, 1.16893152e+03,
       -6.62336578e+01, 1.57037976e+03, 1.10551636e+03, 1.17010864e+02,
       -1.18106384e+03, -1.03117261e+03, -7.68596741e+02,
       -2.46452271e+02, -4.66886719e+02, 2.93935913e+02, -5.00843994e+02,
       -6.69276001e+02, 3.41799347e+02, -8.25492737e+02, 2.50134659e+00,
       4.53070801e+02, -4.29409973e+02, 6.85538086e+02, -1.37862134e+03,
       -5.90067139e+02, 2.26575089e+02, -6.58626892e+02, -2.64876221e+02,
       -2.72373901e+02, -4.40655579e+02, 2.22837219e+02, 1.57624182e+03,
       1.91011621e+03, -1.64213318e+02, -1.81016632e+02, -1.33265540e+03,
       -8.83800781e+02, 1.29517639e+03, 1.67914099e+03, -1.35429663e+03,
       -7.85531067e+02, 4.39304932e+02, -6.51384338e+02, 1.40332764e+03,
       -4.83698578e+02, -9.07782211e+01, -1.34732040e+02,
       -1.25930641e+02, 3.32714172e+02, 3.71176819e+02, 2.70634613e+02,
       -5.66740051e+02, 9.29720215e+02, -1.23191638e+03, 1.31617355e+02,
       7.29709412e+02, -1.18272168e+03, -1.52477930e+03, 6.51685852e+02,
       1.26353723e+03, 1.47479895e+03, -2.52240417e+02, 1.09219646e+00,
       -7.57694092e+01, -3.59456978e+01, -2.38947510e+02, 7.65868912e+01,
       5.51183701e+01, -2.46704407e+02, 1.20551773e+02, 1.81222336e+02,
       1.85042782e+01, 8.61939697e+01, 5.62180298e+02, 2.90828003e+02,
       1.04535425e+03, -9.96175537e+02, -2.40573425e+02, 8.60770691e+02,
       -8.37214722e+02, 7.00220520e+02, 6.88746094e+02, -1.28232559e+02,
       -1.00707825e+03, -6.62372513e+01, 4.75259094e+02, 8.77628632e+01,
       -6.60004028e+02, -1.16892570e+02, -8.73355286e+02, 5.13996216e+02,
       -7.44686279e+02, -1.42145642e+03, 1.02020166e+03, 1.56508911e+03,
       6.90320374e+02, -6.94121338e+02, -4.64039398e+02, -1.21557091e+02,
       5.81076050e+02, 1.22965173e+03, -2.89832115e+01, -6.84702393e+02,
       -1.73505811e+03, 3.88595795e+02, 3.48446411e+02, 3.95847137e+02,
       6.13500366e+02, -2.32996875e+03, -2.59639984e+02, -2.00647546e+03,
       8.07894226e+02, -1.62411026e+02, -3.29764404e+02, 1.39192230e+02,
       2.19381577e+02, 8.48370544e+02, 5.96134399e+02, 4.44109711e+02,
       -9.37574280e+02, -5.48378784e+02, -2.90337708e+02, 1.61858728e+03,
       -2.90367188e+02, -4.88457336e+02, -3.11509800e+01, 1.05387344e+02,
       1.65905655e+02, -1.68132434e+03, 5.08350067e+01, 1.04232998e+01,
       5.73423340e+02, 5.47102661e+02, 4.66948181e+02, 1.25440271e+03,
       2.66281616e+02, -3.63936035e+02, -9.47378784e+02, -6.40971436e+02,
       3.08938538e+02, 4.84665588e+02, 9.93467285e+02, -1.11201514e+03,
       -2.71234741e+02, 6.42777527e+02 ]
